tree
version=v4
num_class=1
num_tree_per_iteration=1
label_index=0
max_feature_idx=13
objective=binary sigmoid:1
feature_names=event_cause veh_type event_type time_bucket hour day_of_week month is_weekend is_rush_hour has_end_coords displacement_km cause_severity vehicle_event_count is_repeat_vehicle
feature_infos=-1:13:5:2:6:0:10:15:1:7:12:9:8:3:14 -1:5:1:2:4:6:8:7:10:3:9 -1:1:0 -1:4:2:1:3:0 [0:23] [0:6] [1:12] [0:1] [0:1] [0:1] [0:4223.2768335238743] [0.34999999999999998:1] [0:5] [0:1]
tree_sizes=3235 3394 3348 3354 3353 3372 3373 3394 3429

Tree=0
num_leaves=31
num_cat=7
split_feature=1 0 3 10 1 3 0 6 4 4 4 5 11 4 6 4 11 6 5 2 6 6 4 4 11 5 5 6 12 4
split_gain=56.5644 21.1954 15.1057 13.4298 9.35244 7.74099 7.69707 11.0126 7.61208 8.98262 6.39519 6.33172 9.65573 6.1419 5.43259 4.7555 12.0701 8.45331 6.95622 4.61531 4.31078 4.16766 4.29142 5.00913 7.0155 3.95237 5.76126 4.93371 3.44779 3.21213
threshold=0 1 2 0.0011491290760659281 3 4 5 6.5000000000000009 7.5000000000000009 22.500000000000004 2.5000000000000004 1.5000000000000002 0.37500000000000006 3.5000000000000004 11.500000000000002 4.5000000000000009 0.37500000000000006 11.500000000000002 2.5000000000000004 6 11.500000000000002 6.5000000000000009 5.5000000000000009 11.500000000000002 0.37500000000000006 3.5000000000000004 5.5000000000000009 11.500000000000002 1.5000000000000002 19.500000000000004
decision_type=9 9 1 2 9 1 9 2 2 2 2 2 2 2 2 2 2 2 2 1 2 2 2 2 2 2 2 2 2 2
left_child=1 14 3 19 -2 13 7 -4 -9 -10 -8 12 -12 25 -1 16 18 -18 -13 20 -3 -17 -23 24 -24 27 -27 -6 -25 -15
right_child=4 2 6 -5 5 -7 10 8 9 -11 11 15 -14 29 -16 21 17 -19 -20 -21 -22 22 23 28 -26 26 -28 -29 -30 -31
leaf_value=0.44096931165080894 0.55471075507741918 0.52998874320748024 0.54559600626634341 0.461960247247656 0.55037281479139089 0.52431171106467556 0.52523601599526504 0.48037810041650242 0.55117172353425592 0.47437227873100901 0.51174460279490985 0.46844835461395418 0.47806183077255449 0.55369393281146873 0.48940993225891749 0.50845835003945961 0.51710915986119044 0.43965737817600603 0.53423283563173696 0.57411181743652451 0.5552891762859451 0.54553731450562859 0.52128008602523934 0.53332942827693597 0.47088139487631597 0.49899994879449749 0.54194295012529725 0.51009295073251926 0.49367988326066931 0.53607439677806212
leaf_weight=15.879869759082794 85.938118696212769 54.87896166741848 44.837279319763184 5.6046599149703971 31.292684525251389 109.99145083129406 67.956501469016075 14.478704780340193 13.077539801597597 5.3711324185132971 47.873136773705482 5.1376049220562008 38.298509418964386 89.207503646612167 9.1075723618268967 92.476888597011566 5.137604922056199 11.209319829940796 18.448672220110893 9.8081548511981946 24.286859631538391 17.748089730739594 17.981617227196697 42.034949362277985 11.209319829940794 18.448672220110893 13.544594794511797 10.041682347655295 6.3052424043416968 36.430289447307587
leaf_count=68 368 235 192 24 134 471 291 62 56 23 205 22 164 382 39 396 22 48 79 42 104 76 77 180 48 79 58 43 27 156
internal_value=0.525749 0.515849 0.518383 0.535892 0.540124 0.535267 0.514628 0.528976 0.507515 0.528812 0.511681 0.508318 0.496774 0.541072 0.477632 0.512687 0.497019 0.463999 0.519904 0.541759 0.537751 0.51602 0.523359 0.518282 0.501927 0.530375 0.51718 0.540587 0.528158 0.548585
internal_weight=974.043 579.148 554.161 94.5786 394.895 308.957 459.582 77.7647 32.9274 18.4487 381.817 313.861 86.1716 198.965 24.9874 227.689 39.9332 16.3469 23.5863 88.974 79.1658 187.756 95.2792 77.5311 29.1909 73.3276 31.9933 41.3344 48.3402 125.638
internal_count=4171 2480 2373 405 1691 1323 1968 333 141 79 1635 1344 369 852 107 975 171 70 101 381 339 804 408 332 125 314 137 177 207 538
cat_boundaries=0 1 2 3 4 5 6 7
cat_threshold=162 4736 2 776 18 32774 2
is_linear=0
shrinkage=1


Tree=1
num_leaves=31
num_cat=3
split_feature=0 10 5 3 4 4 8 4 2 4 4 4 5 4 5 5 4 6 5 6 4 5 12 4 5 6 5 6 12 5
split_gain=43.3439 16.3011 11.6404 10.2316 7.86926 8.50472 4.69956 12.3609 3.97374 3.93249 3.37357 11.9122 5.79525 5.18909 3.49117 3.21159 3.70423 3.78923 3.08847 4.08246 6.08826 3.8028 4.6342 3.40916 3.24318 2.95983 3.7451 2.90877 2.83172 4.02828
threshold=0 0.0028581355067755711 1.5000000000000002 1 13.500000000000002 9.5000000000000018 1.0000000180025095e-35 18.500000000000004 2 3.5000000000000004 2.5000000000000004 4.5000000000000009 4.5000000000000009 5.5000000000000009 4.5000000000000009 4.5000000000000009 19.500000000000004 11.500000000000002 3.5000000000000004 6.5000000000000009 18.500000000000004 1.5000000000000002 1.0000000180025095e-35 4.5000000000000009 1.5000000000000002 6.5000000000000009 4.5000000000000009 11.500000000000002 1.0000000180025095e-35 3.5000000000000004
decision_type=9 2 2 1 2 2 2 2 1 2 2 2 2 2 2 2 2 2 2 2 2 2 2 2 2 2 2 2 2 2
left_child=1 3 6 9 5 10 -2 -8 -5 28 -4 12 -12 14 -13 16 -6 -18 19 21 24 23 -23 -11 -21 26 -15 -10 29 -1
right_child=2 -3 4 8 15 -7 7 -9 27 18 11 13 -14 25 -16 -17 17 -19 -20 20 -22 22 -24 -25 -26 -27 -28 -29 -30 -31
leaf_value=-0.042603479107658611 -0.043937416076195834 -0.025347070378843789 -0.0031948375493779805 -7.391612315337983e-05 0.032040085150782216 -0.076643717589975791 -0.060129787670231763 0.020200184344126328 0.040858998042567152 0.064367828617773626 -0.016593573440143283 -0.012994939374982063 -0.078092571789563664 0.013609241621293976 0.034229085267278789 -0.016768359590206259 -0.013314111677634197 0.016055983701380377 0.024723529694407966 -0.032122743674450234 0.018209056495641515 0.043981211090906275 0.0032631959314460795 0.025318406547852418 0.0007324058367792185 -0.043550749713340803 -0.037489486289840071 -0.0066475366355126606 0.0096506485425575869 0.01146753834429865
leaf_weight=6.5421997010707837 48.860269889235497 37.614662781357765 30.15607762336731 286.26692499220371 11.643756642937658 6.3580261319875708 8.5025951564311999 10.964225247502325 10.462367117404936 6.7481055110692969 5.6535983830690411 7.0115909278392783 11.880473390221594 8.2302695363760012 8.8579358756542188 19.170752286911011 23.627701923251152 20.519060581922531 96.669675335288048 12.113747224211695 36.222174033522606 8.5885763019323331 37.491798922419548 32.548831149935722 19.768574565649033 10.415273159742354 6.3541619628667823 4.6560769081115714 132.63978384435177 7.2747841626405716
leaf_count=28 207 161 129 1226 50 27 36 47 45 29 24 30 50 35 38 82 101 88 416 52 156 37 161 140 85 44 27 20 569 31
internal_value=0.000613183 0.0066257 -0.0174978 0.00844363 -0.0112226 -0.020786 -0.0356604 -0.0148858 0.00120549 0.0135714 -0.0167757 -0.0237881 -0.0582631 -0.00899737 0.0133642 0.000886814 0.00695349 0.000336873 0.0177231 0.0133139 0.00418362 0.0205971 0.0108523 0.032024 -0.011751 -0.0231923 -0.00865351 0.0262283 0.00740671 -0.0141345
internal_weight=973.814 735.608 238.206 697.994 169.879 94.9174 68.3271 19.4668 301.385 396.608 88.5594 58.4033 17.5341 40.8692 15.8695 74.9613 55.7905 44.1468 250.151 153.482 68.1045 85.3773 46.0804 39.2969 31.8823 24.9997 14.5844 15.1184 146.457 13.817
internal_count=4171 3156 1015 2995 725 404 290 83 1291 1704 377 248 74 174 68 321 239 189 1076 660 293 367 198 169 137 106 62 65 628 59
cat_boundaries=0 1 2 3
cat_threshold=40966 18 2
is_linear=0
shrinkage=0.05


Tree=2
num_leaves=31
num_cat=7
split_feature=1 0 3 10 10 0 5 5 6 2 4 5 0 6 0 6 8 4 4 6 6 6 4 6 6 11 5 4 4 11
split_gain=50.1746 20.2575 16.588 7.66982 7.15872 7.01252 11.5829 5.95386 4.3818 4.23856 4.11624 6.42877 3.73692 8.40644 3.63507 3.97922 2.85032 4.27203 12.5918 6.91754 5.26724 3.15129 3.03432 2.76092 2.27422 2.23005 2.37625 2.15282 3.33826 4.41173
threshold=0 1 2 0.0091565069272664702 0.0011491290760659281 3 1.5000000000000002 1.0000000180025095e-35 11.500000000000002 4 21.500000000000004 1.5000000000000002 5 11.500000000000002 6 11.500000000000002 1.0000000180025095e-35 4.5000000000000009 2.5000000000000004 11.500000000000002 6.5000000000000009 6.5000000000000009 1.5000000000000002 6.5000000000000009 6.5000000000000009 0.57500000000000007 3.5000000000000004 2.5000000000000004 6.5000000000000009 0.57500000000000007
decision_type=9 9 1 2 2 9 2 2 2 1 2 2 9 2 9 2 2 2 2 2 2 2 2 2 2 2 2 2 2 2
left_child=1 8 4 10 9 7 -7 24 -1 14 -2 -12 13 27 25 -16 17 18 22 -20 -19 -18 -8 -13 -4 26 -3 -9 29 -29
right_child=3 2 5 -5 -6 6 16 12 -10 -11 11 23 -14 -15 15 -17 21 20 19 -21 -22 -23 -24 -25 -26 -27 -28 28 -30 -31
leaf_value=-0.076062160775920651 0.023113202996499455 0.014552210322050639 0.025740577207489762 -0.02977656547528252 -0.033652994997348862 -0.039061459320976849 -0.010847085419382604 -0.0088996002038666325 -0.03292883632524872 0.046266181824017531 -0.023875356739862928 0.041637704489573234 -0.0086128198154841427 -0.022920248869063554 0.010521611001476068 0.03345852856311797 -0.0087747211658735693 -0.016145376299407287 -0.0055840333478857432 -0.075006386049049301 0.011714633964064126 -0.056749930287153194 0.023633868027624311 0.0044056611764713418 0.0013146692653555432 -0.026695152214810364 -0.018775090028589514 0.078335446934155561 0.01269003392004588 0.015236198907236435
leaf_weight=16.313757359981537 227.96530251204967 15.544958010315897 20.508917137980461 7.7379296720027915 8.2738725990056974 45.754973858594894 18.229525744915009 5.6233717054128638 9.2132528871297854 9.6120959371328336 12.589139595627783 9.3115609735250491 275.72594603896141 16.929016247391701 58.632239505648613 27.909998059272766 7.2880111783742887 28.462494641542435 5.1962816715240487 11.596145778894424 41.999130636453629 6.4541986584663391 9.8158984780311602 10.701869353651999 17.800565540790558 8.555604159831999 8.15404464304447 5.5392638742923754 20.407385021448135 5.541264995932579
leaf_count=68 983 67 88 33 35 192 78 24 39 42 54 40 1181 72 253 121 31 121 22 48 180 27 42 46 76 37 35 24 88 24
internal_value=0.000586078 -0.0064362 -0.00443499 0.0185871 0.010647 -0.00835618 -0.0165023 -0.0041535 -0.0434667 0.0143306 0.0207366 0.00411902 -0.0064338 0.00529754 0.0117466 0.0160627 -0.00978218 -0.00721672 -0.0192817 -0.0535242 0.000460772 -0.0313069 0.00122125 0.0217285 0.014391 -0.00367469 0.00308539 0.0195971 0.0246863 0.0467801
internal_weight=973.388 705.082 679.555 268.306 136.683 542.872 174.797 368.076 25.527 128.409 260.568 32.6026 329.766 54.0403 118.797 86.5422 129.042 115.299 44.8379 16.7924 70.4616 13.7422 28.0454 20.0134 38.3095 32.2546 23.699 37.1113 31.4879 11.0805
internal_count=4171 3015 2908 1156 590 2318 741 1577 107 555 1123 140 1413 232 513 374 549 491 190 70 301 58 120 86 164 139 102 160 136 48
cat_boundaries=0 1 2 3 4 5 6 7
cat_threshold=166 4736 2 40966 2 6 32868
is_linear=0
shrinkage=0.05


Tree=3
num_leaves=31
num_cat=11
split_feature=1 0 3 10 10 0 2 3 1 0 0 10 8 11 7 8 11 11 11 11 3 12 12 7 8 7 1 11 12 11
split_gain=45.4735 18.0726 14.9846 6.94273 6.45187 6.27608 3.9131 3.34975 3.88504 3.30123 3.19448 5.22988 2.86566 2.91438 2.51 2.04925 4.3186 1.99691 1.99032 2.80842 1.92671 1.66808 1.58399 1.68692 2.13802 1.49682 1.41748 1.81992 1.20312 2.19913
threshold=0 1 2 0.0091565069272664702 0.0011491290760659281 3 4 5 6 7 8 0.0038350632720652307 1.0000000180025095e-35 0.87500000000000011 1.0000000180025095e-35 1.0000000180025095e-35 0.92500000000000016 0.57500000000000007 0.82500000000000007 0.45000000000000007 9 1.5000000000000002 1.5000000000000002 1.0000000180025095e-35 1.0000000180025095e-35 1.0000000180025095e-35 10 0.65000000000000002 1.0000000180025095e-35 0.97500000000000009
decision_type=9 9 1 2 2 9 1 1 9 9 9 2 2 2 2 2 2 2 2 2 1 2 2 2 2 2 9 2 2 2
left_child=1 12 4 7 6 10 9 -2 -9 17 14 20 13 -1 -4 18 -17 -3 19 25 22 -10 -12 24 -24 -7 -22 -28 29 -11
right_child=3 2 5 -5 -6 15 -8 8 21 28 11 -13 -14 -15 -16 16 -18 -19 -20 -21 26 -23 23 -25 -26 -27 27 -29 -30 -31
leaf_value=-0.059494917581502327 0.024908106353738274 0.0029355498262736146 0.0024758014643972408 -0.028079292236161249 -0.031723476798896359 -0.02452638775405093 0.044585886012648485 0.020930849713145652 -0.0014748017073253725 0.057719900547472891 -0.0044665574049155606 -0.03798982642205892 -0.086807089432544476 -0.016659795177022277 0.029851161799565415 -0.046569129359540586 0.0066531487987454606 -0.0251749995479661 -0.026207591407699477 -0.0039303497789676192 -0.00094595318404327045 0.02038404831206193 0.0054815509439069604 -0.0083666797111906846 0.035935683525364005 -0.0090119660740896976 -0.021145305179438662 0.0074049424655558867 0.014447576707302867 0.016472955628616903
leaf_weight=14.237321048974996 148.97838690876961 23.677089437842369 35.134818583726883 7.7938764393329611 8.3365783095359784 42.6661536693573 9.4790461361408216 40.33812527358532 59.544305354356766 4.8475294709205601 154.72494447231293 12.236554980278013 6.079414650797843 5.5067407488822928 10.993074133992193 13.883069306612017 5.253936067223548 8.61697208881378 29.96350970864296 59.152597367763519 36.995397925376892 10.226738452911375 37.808801084756851 17.049781784415245 6.7996085137128821 24.459122121334076 50.400775849819183 6.2769277840852729 71.567768216133118 9.6935389339923859
leaf_count=59 648 102 151 33 35 181 42 175 256 21 663 52 25 23 47 58 22 37 126 250 158 44 162 73 29 104 215 27 311 42
internal_value=0.000556345 -0.00611044 -0.00421377 0.0177523 0.0101506 -0.00793027 0.0136741 0.0198161 0.00977666 0.0111993 -0.00395215 -0.0057501 -0.0409376 -0.0475479 0.00739637 -0.0156232 -0.0319573 -0.00348576 -0.0146225 -0.0118735 -0.0046632 0.00151241 -0.00168802 0.00501068 0.0101236 -0.0188732 -0.0102603 -0.0152864 0.0153312 0.0302234
internal_weight=972.723 705.841 680.018 266.881 136.219 543.799 127.882 259.088 110.109 118.403 368.421 322.293 25.8235 19.7441 46.1279 175.378 19.137 32.2941 156.241 126.278 310.056 69.771 216.383 61.6582 44.6084 67.1253 93.6731 56.6777 86.1088 14.5411
internal_count=4171 3015 2908 1156 590 2318 555 1123 475 513 1577 1379 107 82 198 741 80 139 661 535 1327 300 927 264 191 285 400 242 374 63
cat_boundaries=0 1 2 3 4 5 6 7 8 9 10 11
cat_threshold=166 4736 2 40966 2 18 776 32868 4 24 132
is_linear=0
shrinkage=0.05


Tree=4
num_leaves=31
num_cat=6
split_feature=1 0 3 9 0 5 5 4 4 5 6 9 2 0 6 6 6 11 4 4 6 6 11 11 11 4 4 5 6 4
split_gain=41.4835 16.165 13.5261 6.0392 5.6273 10.1778 5.39483 3.89412 3.69585 5.74777 3.61851 3.54509 3.73052 3.12764 7.69232 2.95728 2.55686 2.45175 2.42625 4.57471 4.47499 3.56691 14.2017 10.1972 6.28203 3.97208 2.81285 2.19647 2.06226 2.02063
threshold=0 1 2 1.0000000180025095e-35 3 1.5000000000000002 1.0000000180025095e-35 6.5000000000000009 21.500000000000004 1.5000000000000002 11.500000000000002 1.0000000180025095e-35 4 5 11.500000000000002 11.500000000000002 6.5000000000000009 0.57500000000000007 13.500000000000002 8.5000000000000018 6.5000000000000009 11.500000000000002 0.45000000000000007 0.97500000000000009 0.92500000000000016 5.5000000000000009 5.5000000000000009 4.5000000000000009 6.5000000000000009 9.5000000000000018
decision_type=9 9 1 2 9 2 2 2 2 2 2 2 1 9 2 2 2 2 2 2 2 2 2 2 2 2 2 2 2 2
left_child=1 10 11 8 6 -6 28 -5 -2 -10 29 12 15 14 -8 17 -11 -3 19 21 -20 22 25 -23 26 -7 27 -24 -4 -1
right_child=3 2 4 7 5 18 13 -9 9 16 -12 -13 -14 -15 -16 -17 -18 -19 20 -21 -22 23 24 -25 -26 -27 -28 -29 -30 -31
leaf_value=-0.05615693180516286 0.021548465583465504 0.0087823256681014046 0.024795544347714502 -0.046262146684332157 -0.035758085938544369 -0.071084742061358439 0.018575527394135191 0.01315583660122851 -0.022848498062540384 0.03962781250764693 -0.028565622213106302 -0.019394132082851151 0.04298462538771982 -0.0078925069418565013 -0.0220882488554996 0.022406875385235298 0.0036241273441394218 -0.014669246073481766 -0.01838087914866364 -0.050783710393795749 0.014276018319194199 -0.0071690415493906026 0.034921979287159982 -0.069056989500236574 0.056954367264210805 -0.011223223191013709 -0.022924294584112277 -0.0071996491331617306 0.0015095412067467106 -0.094317342663045201
leaf_weight=11.779625818133356 222.0328705906868 69.147174268960953 20.387976571917534 5.8956098854541761 46.286716103553772 6.5920521616935712 36.868691936135292 5.1805197447538376 12.647388651967047 9.1793300807476061 9.365646183490755 9.3061279952526075 9.3440245091915113 276.71361075341702 16.989225178956985 34.673284187912941 10.655302450060843 13.286203935742376 17.53538703918457 7.442707121372222 26.109769031405449 31.461446598172188 7.741522744297983 8.4418796598911268 8.2717676013708132 4.7809969931840897 6.1884539723396292 5.1564164757728577 17.817402139306068 4.9169664680957785
leaf_count=48 969 300 88 25 192 28 160 22 54 40 39 39 42 1181 72 152 46 57 74 31 112 133 33 35 35 20 26 22 76 20
internal_value=0.000554523 -0.00579702 -0.00399885 0.0170299 -0.00751972 -0.0147894 -0.0037512 -0.0184712 0.0192439 0.00349113 -0.0386221 0.0096768 0.0125815 -0.00590885 0.00484816 0.0101557 0.0202864 0.00500252 -0.00844758 -0.0133167 0.0011554 -0.00977051 0.00103843 -0.020262 0.0205596 -0.0459202 0.0047866 0.0180823 0.0139359 -0.0673948
internal_weight=972.196 706.605 680.543 265.591 544.786 176.009 368.777 11.0761 254.515 32.482 26.0622 135.757 126.451 330.572 53.8579 117.107 19.8346 82.4334 129.722 86.0772 43.6452 78.6345 38.7312 39.9033 27.3582 11.373 19.0864 12.8979 38.2054 16.6966
internal_count=4171 3015 2908 1156 2318 741 1577 47 1109 140 107 590 551 1413 232 509 86 357 549 363 186 332 164 168 116 48 81 55 164 68
cat_boundaries=0 1 2 3 4 5 6
cat_threshold=166 4736 2 40966 2 6
is_linear=0
shrinkage=0.05


Tree=5
num_leaves=31
num_cat=6
split_feature=1 11 10 10 3 11 2 1 2 11 6 10 5 12 6 5 5 3 12 6 8 11 6 5 11 5 6 5 6 11
split_gain=46.2169 17.0323 11.6019 11.246 9.72315 6.41252 4.06208 3.74508 3.24789 4.57236 3.45262 2.99043 2.90235 2.8359 2.76856 2.56082 3.99196 2.50947 3.43751 4.23494 3.27528 5.26707 3.54776 2.99866 3.68419 3.71427 2.8355 3.76012 2.4914 3.25964
threshold=0 0.75000000000000011 0.00011537912680090016 0.0022825523563048886 1 0.87500000000000011 2 3 4 0.57500000000000007 6.5000000000000009 0.0043935050687694977 1.5000000000000002 2.5000000000000004 6.5000000000000009 4.5000000000000009 2.5000000000000004 5 2.5000000000000004 6.5000000000000009 1.0000000180025095e-35 0.37500000000000006 6.5000000000000009 5.5000000000000009 0.52500000000000013 1.5000000000000002 1.5000000000000002 1.5000000000000002 11.500000000000002 0.37500000000000006
decision_type=9 2 2 2 1 2 1 9 1 2 2 2 2 2 2 2 2 1 2 2 2 2 2 2 2 2 2 2 2 2
left_child=1 3 7 4 8 -3 17 15 9 10 -1 -5 -7 -9 -14 16 -2 18 -6 -20 23 26 -23 24 -19 -26 -22 -28 -12 -30
right_child=2 5 -4 11 6 12 -8 13 -10 -11 28 -13 14 -15 -16 -17 -18 20 19 -21 21 22 -24 -25 25 -27 27 -29 29 -31
leaf_value=0.020163594332308233 0.034389647939294277 -0.055835734601752424 -0.033956261377536982 -0.064862017094574398 -0.0042528937614852227 -0.038677927215875138 0.014414434319631079 0.011230119289336931 0.039811299829759686 -0.026104621004386458 -0.01304900196518187 -0.024920516498390805 0.0016785963195567917 0.048654888461924117 -0.025446959251490205 0.042075571365341333 0.010740620875475735 -0.014209558664221017 0.049724589914182049 -0.0072221953931584509 0.033640002988877385 -0.0054741353912129767 -0.052065768183231692 -0.035922296336244296 0.043170453802495568 -0.0074724222054696025 0.033036433188613594 -0.0079708247619623869 0.020631184937580687 -0.016790757487980219
leaf_weight=51.943478420376778 45.425580352544785 17.936511412262917 10.405108809471129 5.4555071592330924 201.63966092467308 16.938558012247086 23.345036685466766 142.81517159938812 8.7683944255113584 8.9272891283035261 18.149807557463646 33.234560623764992 16.448612630367279 5.24789835512638 21.972319230437279 31.598417446017265 29.389021158218384 164.13261213898659 6.7555002719163877 6.3181104063987732 9.6350503712892515 10.892156854271891 6.5385002046823493 14.13896884024143 5.7475564181804648 9.7834959775209409 7.484381020069125 22.086945563554764 21.492187589406971 7.9796356856822959
leaf_count=226 199 73 44 23 860 70 101 625 40 38 79 140 70 23 92 139 129 695 29 27 41 46 27 60 25 42 32 94 95 35
internal_value=-0.000327369 -0.00691847 0.0171463 -0.00441728 -0.00274802 -0.0298538 -0.00581874 0.0199096 0.00971229 0.00817488 0.0112485 -0.0305525 -0.0214356 0.0117622 -0.0138341 0.0275515 0.0250997 -0.00695929 -0.00252441 0.0222038 -0.0102514 -8.34785e-05 -0.0229514 -0.0137518 -0.0120071 0.0112689 0.0100833 0.00240794 0.00152427 0.010499
internal_weight=982.626 717.745 264.881 644.449 605.759 73.296 488.498 254.476 117.261 108.492 99.5651 38.6901 55.3595 148.063 38.4209 106.413 74.8146 465.153 214.713 13.0736 250.44 56.637 17.4307 193.803 179.664 15.5311 39.2064 29.5713 47.6216 29.4718
internal_count=4219 3060 1159 2755 2592 305 2079 1115 513 473 435 163 232 648 162 467 328 1978 916 56 1062 240 73 822 762 67 167 126 209 130
cat_boundaries=0 1 2 3 4 5 6
cat_threshold=166 2 2 832 2 17
is_linear=0
shrinkage=0.05


Tree=6
num_leaves=31
num_cat=5
split_feature=1 11 9 10 2 4 4 11 0 6 1 11 6 4 4 4 4 4 5 4 5 1 4 4 5 6 5 4 11 5
split_gain=41.858 15.2769 11.3725 10.0642 7.14425 6.63897 8.14414 5.72951 5.18177 3.93956 7.1112 6.24003 5.6252 6.31605 5.82739 5.83343 4.3777 6.36906 4.24817 4.08663 3.81083 3.63621 5.12053 5.35854 6.401 5.23529 5.73404 3.76827 3.62628 3.55571
threshold=0 0.75000000000000011 1.0000000180025095e-35 0.0022825523563048886 1 19.500000000000004 21.500000000000004 0.87500000000000011 2 6.5000000000000009 3 0.52500000000000013 1.5000000000000002 2.5000000000000004 6.5000000000000009 20.500000000000004 1.5000000000000002 5.5000000000000009 2.5000000000000004 7.5000000000000009 3.5000000000000004 4 1.0000000180025095e-35 19.500000000000004 4.5000000000000009 6.5000000000000009 4.5000000000000009 1.0000000180025095e-35 0.45000000000000007 1.5000000000000002
decision_type=9 2 2 2 1 2 2 2 9 2 9 2 2 2 2 2 2 2 2 2 2 9 2 2 2 2 2 2 2 2
left_child=1 3 21 4 8 20 -7 -3 -1 10 12 -11 13 -10 -15 -16 18 -18 -12 -13 -6 27 -23 25 -25 -24 -27 -2 -20 -14
right_child=2 7 -4 -5 5 6 -8 -9 9 11 16 19 29 14 15 -17 17 -19 28 -21 -22 22 23 24 -26 26 -28 -29 -30 -31
leaf_value=-0.013521916884834851 0.063038374803852631 -0.052710491167332368 -0.031829444309841082 -0.028829857373838787 -0.031420154585384018 0.055934171747272748 -0.020063747368680968 -0.020284186906487013 0.02575046314609411 -0.0044425421439470121 -0.048343038328870186 -0.073907702207911194 0.027980051959487797 -0.048803270752311306 0.015521329929935291 -0.033807434996038666 0.032295754914491263 0.0068183055544386653 -0.026927234922443935 -0.011090478915147558 0.025890189916922181 -0.029583312742727921 0.032291136214002911 0.010167463814569155 -0.034895027206498085 -0.0031874702644479874 0.034124429128303345 0.026615690445439079 0.033257937189592808 -0.003350648164198495
leaf_weight=102.58441673219204 7.6588643938302985 18.046938419342041 11.407517150044439 38.943589016795158 7.3189259320497531 15.181137353181841 4.591327264904975 55.568286567926407 6.5253254771232596 215.7874042391777 5.847458377480506 5.4606280475854856 11.65341943502426 17.831072926521301 11.101699858903887 13.024612694978712 32.991442516446114 95.648163124918938 4.6815274208784086 4.9235364198684692 4.8049310892820358 7.0460012108087531 48.49510146677494 33.967166215181351 10.261219158768652 31.834918037056923 15.219609454274176 97.546794220805168 5.3777892291545868 40.625718459486961
leaf_count=434 34 73 48 163 32 68 20 232 28 922 25 23 50 76 48 55 142 411 20 21 21 31 214 148 45 140 67 432 23 173
internal_value=-0.000308271 -0.00656316 0.0163792 -0.00419127 -0.00260781 0.0204244 0.0382868 -0.0282336 -0.00388754 -0.00147325 0.0028841 -0.00626441 -0.00704448 -0.0200113 -0.0271282 -0.0111089 0.00962657 0.0133524 -0.0144524 -0.0441236 -0.0087069 0.0192111 0.01124 0.014102 -0.000287272 0.0207625 0.00888092 0.0267268 0.00524823 0.0036332
internal_weight=981.957 718.519 263.437 644.904 605.961 31.8963 19.7725 73.6152 574.064 471.48 245.308 226.172 100.762 48.4827 41.9574 24.1263 144.546 128.64 15.9068 10.3842 12.1239 252.03 146.824 139.778 44.2284 95.5496 47.0545 105.206 10.0593 52.2791
internal_count=4219 3060 1159 2755 2592 141 88 305 2451 2017 1051 966 430 207 179 103 621 553 68 44 53 1111 645 614 193 421 207 466 43 223
cat_boundaries=0 1 2 3 4 5
cat_threshold=166 2 1092 2 832
is_linear=0
shrinkage=0.05


Tree=7
num_leaves=31
num_cat=4
split_feature=1 0 9 3 5 4 9 4 4 6 4 9 5 4 1 6 4 4 5 6 5 4 6 4 9 6 5 4 4 5
split_gain=37.9493 12.4332 10.2885 6.08994 4.23382 6.94395 4.42971 4.12313 13.753 3.81589 3.7704 3.62349 3.59994 3.4658 3.98142 2.96813 3.85882 4.85315 2.78133 2.99249 2.71515 4.64015 4.51856 3.66119 2.68435 3.18576 2.95282 2.73394 2.62955 4.91391
threshold=0 1 1.0000000180025095e-35 2 1.5000000000000002 20.500000000000004 1.0000000180025095e-35 2.5000000000000004 4.5000000000000009 11.500000000000002 9.5000000000000018 1.0000000180025095e-35 1.0000000180025095e-35 6.5000000000000009 3 11.500000000000002 5.5000000000000009 21.500000000000004 3.5000000000000004 11.500000000000002 3.5000000000000004 20.500000000000004 11.500000000000002 18.500000000000004 1.0000000180025095e-35 1.5000000000000002 1.0000000180025095e-35 15.500000000000002 21.500000000000004 5.5000000000000009
decision_type=9 9 2 1 2 2 2 2 2 2 2 2 2 2 9 2 2 2 2 2 2 2 2 2 2 2 2 2 2 2
left_child=1 3 13 11 5 10 7 -6 -9 12 -3 -1 -7 -2 20 -10 -17 -18 19 -16 23 22 -22 -15 26 -26 -5 -27 -28 -30
right_child=2 4 -4 24 6 9 -8 8 15 -11 -12 -13 -14 14 18 16 17 -19 -20 -21 21 -23 -24 -25 25 27 28 -29 29 -31
leaf_value=0.010390545190976281 0.024997409835579357 -0.027480490993276735 -0.030030134254942099 0.0081995147867042675 0.011072277391431981 -0.008847151722864861 -0.048529256490913081 -0.065101537952442931 -0.016265228702839293 -0.087122715340807899 0.012376478993863925 -0.025071365041614925 -0.068007894152791876 -0.014932459385529116 0.022806070634081178 0.03684790215908082 -0.028437375818029922 0.01573600943929335 0.035012546235250269 -0.0054367284464730539 0.025860682365644733 -0.038039803387471434 -0.023743191087406829 0.020853555187027278 0.0034791744726548699 -0.016344613433080871 -0.0037395192897992837 -0.051244541262016587 -0.010564870006394498 -0.059439425108380455
leaf_weight=106.4068166166544 110.31538346409798 24.825874790549278 11.484408855438231 43.190065607428551 17.577004641294479 5.1454125791788119 8.5018300712108594 12.014517009258268 41.05974905192852 6.6009313613176337 7.7972236275672904 7.726555034518241 5.1401630938053131 9.7871443182229978 34.685668185353279 7.0046983659267452 11.795390516519548 13.149655327200888 28.094462916254997 12.855029404163359 10.861498355865484 9.4565383195877057 7.9523822814226142 26.49684551358223 11.420629769563673 16.192761093378071 304.83710861206055 8.5874622166156751 54.558267667889595 5.6780571043491355
leaf_count=468 492 101 48 185 74 21 35 49 172 27 33 32 21 43 154 30 50 56 125 57 48 41 35 116 48 68 1299 36 231 24
internal_value=-0.000296362 -0.00623562 0.0156487 -0.00255504 -0.0181364 -0.0314264 -0.0138464 -0.0109725 -0.0155298 -0.0574533 -0.0179543 0.00734621 -0.0384124 0.0183676 0.0131505 -0.00737226 0.00405642 -0.0051516 0.0199079 0.0151692 0.0018611 -0.00946764 0.00489377 0.0112007 -0.00520327 -0.0183695 -0.00416326 -0.028439 -0.00562584 -0.0151719
internal_weight=981.2 719.21 261.989 558.598 160.612 49.5096 111.103 102.601 85.024 16.8865 32.6231 114.133 10.2856 250.505 140.19 73.0095 31.9497 24.945 75.6352 47.5407 64.5544 28.2704 18.8139 36.284 444.464 36.2009 408.263 24.7802 365.073 60.2363
internal_count=4219 3060 1159 2391 669 203 466 431 357 69 134 500 42 1111 619 308 136 106 336 211 283 124 83 159 1891 152 1739 104 1554 255
cat_boundaries=0 1 2 3 4
cat_threshold=166 40998 2 1040
is_linear=0
shrinkage=0.05


Tree=8
num_leaves=31
num_cat=2
split_feature=0 10 10 5 11 4 4 4 6 4 4 5 5 5 11 4 6 2 4 11 8 11 6 5 5 5 8 6 4 4
split_gain=25.4599 12.0577 9.03668 6.23521 4.812 4.76122 4.4012 8.85905 8.43594 4.203 4.13679 9.94265 3.71939 3.60049 7.96657 4.73344 5.29216 3.59272 10.7294 5.90379 3.88358 3.46555 3.21502 6.79536 3.55868 3.087 2.97153 3.14538 2.59918 2.57276
threshold=0 0.0019655376332132915 1.0000000180025095e-35 1.5000000000000002 0.75000000000000011 20.500000000000004 2.5000000000000004 4.5000000000000009 11.500000000000002 21.500000000000004 5.5000000000000009 4.5000000000000009 4.5000000000000009 3.5000000000000004 0.52500000000000013 22.500000000000004 11.500000000000002 1 19.500000000000004 0.57500000000000007 1.0000000180025095e-35 0.45000000000000007 11.500000000000002 1.0000000180025095e-35 1.0000000180025095e-35 3.5000000000000004 1.0000000180025095e-35 6.5000000000000009 19.500000000000004 5.5000000000000009
decision_type=9 2 2 2 2 2 2 2 2 2 2 2 2 2 2 2 2 1 2 2 2 2 2 2 2 2 2 2 2 2
left_child=1 9 3 4 22 -4 -5 8 -8 17 11 -9 -12 15 -15 16 -11 19 25 26 -21 -14 24 -24 -2 -19 29 -28 -23 -1
right_child=2 -3 5 6 -6 -7 7 10 -10 13 12 -13 21 14 -16 -17 -18 18 -20 20 -22 28 23 -25 -26 -27 27 -29 -30 -31
leaf_value=0.0081845957706816706 0.0081136677542945467 -0.021962222473364049 -0.031675044677214381 0.010957661829725025 -0.042956508730523056 -0.087300289722292881 0.0014997425883572181 -0.02434389012793808 -0.066064743270932549 0.005600929050223493 -0.0022472757263050347 0.059368390435295564 -0.052515064643144309 -0.0068352461676559123 -0.07672829730529214 0.019440351627381072 -0.038050925231024234 -0.029540777788868006 0.054067073530701719 -0.0029679941201484258 -0.048633929790588129 -0.027120131814187227 -0.07158690683052836 0.0004626515711009337 -0.024256576455719228 0.022778827810869262 0.019224384414473959 0.0065083536154938023 0.0062110337594999034 -0.0010882218471365494
leaf_weight=231.09593334794044 18.610816583037376 39.997340694069862 15.399557605385782 31.354729890823364 22.140925049781799 5.1279246360063544 7.3744097352027902 6.6126138567924482 12.368757173418999 20.266818985342979 78.804806366562843 7.6510792821645737 7.3942297548055675 29.386820957064629 4.7337699532508841 26.576553478837013 10.561744153499605 7.3835436850786209 14.876404240727425 12.776314556598665 7.3249798119068137 14.202212870121004 6.5866085737943632 6.5042083561420441 15.613869354128836 4.5608809441328049 98.157448798418045 96.381177932024002 9.9442796558141691 110.60310679674149
leaf_count=1010 78 166 63 133 90 21 31 28 50 87 334 33 31 126 20 114 45 32 68 55 31 59 27 27 65 20 433 424 42 476
internal_value=-0.000279248 0.00464628 -0.0132063 -0.0110351 -0.0237176 -0.0455707 -0.0060217 -0.00970978 -0.0408283 0.00629257 -0.00477935 0.0205596 -0.00805476 -0.00366885 -0.016532 0.00397676 -0.00935402 0.007856 0.02573 0.0069943 -0.0196088 -0.0225648 -0.0147149 -0.0357889 -0.00665417 -0.00956296 0.00799154 0.0129244 -0.0133933 0.00518312
internal_weight=980.374 714.683 265.691 245.164 69.4564 20.5275 175.707 144.352 19.7432 674.685 124.609 14.2637 110.346 91.5257 34.1206 57.4051 30.8286 583.16 26.8208 556.339 20.1013 31.5407 47.3155 13.0908 34.2247 11.9444 536.238 194.539 24.1465 341.699
internal_count=4219 3107 1112 1028 287 84 741 608 81 2941 527 61 466 392 146 246 132 2549 120 2429 86 132 197 54 143 52 2343 857 101 1486
cat_boundaries=0 1 2
cat_threshold=8198 2
is_linear=0
shrinkage=0.05


end of trees

feature_importances:
hour=62
day_of_week=45
month=43
cause_severity=30
event_cause=17
veh_type=14
displacement_km=13
time_bucket=11
event_type=9
is_rush_hour=8
vehicle_event_count=8
has_end_coords=7
is_weekend=3

parameters:
[boosting: gbdt]
[objective: binary]
[metric: binary_logloss,auc]
[tree_learner: serial]
[device_type: cpu]
[data_sample_strategy: bagging]
[data: ]
[valid: ]
[num_iterations: 500]
[learning_rate: 0.05]
[num_leaves: 31]
[num_threads: -1]
[seed: 42]
[deterministic: 0]
[force_col_wise: 0]
[force_row_wise: 0]
[histogram_pool_size: -1]
[max_depth: -1]
[min_data_in_leaf: 20]
[min_sum_hessian_in_leaf: 0.001]
[bagging_fraction: 0.8]
[pos_bagging_fraction: 1]
[neg_bagging_fraction: 1]
[bagging_freq: 5]
[bagging_seed: 400]
[bagging_by_query: 0]
[feature_fraction: 0.8]
[feature_fraction_bynode: 1]
[feature_fraction_seed: 30056]
[extra_trees: 0]
[extra_seed: 12879]
[early_stopping_round: 0]
[early_stopping_min_delta: 0]
[first_metric_only: 0]
[max_delta_step: 0]
[lambda_l1: 0]
[lambda_l2: 0]
[linear_lambda: 0]
[min_gain_to_split: 0]
[drop_rate: 0.1]
[max_drop: 50]
[skip_drop: 0.5]
[xgboost_dart_mode: 0]
[uniform_drop: 0]
[drop_seed: 17869]
[top_rate: 0.2]
[other_rate: 0.1]
[min_data_per_group: 100]
[max_cat_threshold: 32]
[cat_l2: 10]
[cat_smooth: 10]
[max_cat_to_onehot: 4]
[top_k: 20]
[monotone_constraints: ]
[monotone_constraints_method: basic]
[monotone_penalty: 0]
[feature_contri: ]
[forcedsplits_filename: ]
[refit_decay_rate: 0.9]
[cegb_tradeoff: 1]
[cegb_penalty_split: 0]
[cegb_penalty_feature_lazy: ]
[cegb_penalty_feature_coupled: ]
[path_smooth: 0]
[interaction_constraints: ]
[verbosity: -1]
[saved_feature_importance_type: 0]
[use_quantized_grad: 0]
[num_grad_quant_bins: 4]
[quant_train_renew_leaf: 0]
[stochastic_rounding: 1]
[linear_tree: 0]
[max_bin: 255]
[max_bin_by_feature: ]
[min_data_in_bin: 3]
[bin_construct_sample_cnt: 200000]
[data_random_seed: 175]
[is_enable_sparse: 1]
[enable_bundle: 1]
[use_missing: 1]
[zero_as_missing: 0]
[feature_pre_filter: 1]
[pre_partition: 0]
[two_round: 0]
[header: 0]
[label_column: ]
[weight_column: ]
[group_column: ]
[ignore_column: ]
[categorical_feature: 0,1,2,3]
[forcedbins_filename: ]
[precise_float_parser: 0]
[parser_config_file: ]
[objective_seed: 16083]
[num_class: 1]
[is_unbalance: 0]
[scale_pos_weight: 1]
[sigmoid: 1]
[boost_from_average: 1]
[reg_sqrt: 0]
[alpha: 0.9]
[fair_c: 1]
[poisson_max_delta_step: 0.7]
[tweedie_variance_power: 1.5]
[lambdarank_truncation_level: 30]
[lambdarank_norm: 1]
[label_gain: ]
[lambdarank_position_bias_regularization: 0]
[eval_at: ]
[multi_error_top_k: 1]
[auc_mu_weights: ]
[num_machines: 1]
[local_listen_port: 12400]
[time_out: 120]
[machine_list_filename: ]
[machines: ]
[gpu_platform_id: -1]
[gpu_device_id: -1]
[gpu_use_dp: 0]
[num_gpu: 1]

end of parameters

pandas_categorical:[]
