tree
version=v4
num_class=1
num_tree_per_iteration=1
label_index=0
max_feature_idx=19
objective=binary sigmoid:1
feature_names=event_cause corridor_clean zone police_station veh_type event_type time_bucket hour day_of_week month is_weekend is_rush_hour is_on_corridor has_end_coords displacement_km cause_severity events_in_corridor_1h events_in_corridor_24h vehicle_event_count is_repeat_vehicle
feature_infos=-1:13:5:2:6:0:10:15:1:7:12:9:8:3:14 -1:11:10:2:20:3:7:17:14:9:15:18:1:19:16:22:6:5:8:13:0:21:12 -1:4:1:9:6:10:8:5:0:2:3:7 -1:52:14:6:16:18:53:43:32:3:28:38:30:33:11:23:39:1:7:50:19:13:17:34:26:21:37:41:8:25:35:44:0:20:5:15:29:51:2:22:42:45:27:9:24:47:36:40:49:31:46:12:48:10 -1:5:1:2:4:6:8:7:10:3:9 -1:1:0 -1:4:2:1:3:0 [0:23] [0:6] [1:12] [0:1] [0:1] none [0:1] [0:4223.2768335238743] [0.34999999999999998:1] [0:23] [0:62] [0:5] [0:1]
tree_sizes=2019 6787

Tree=0
num_leaves=18
num_cat=1
split_feature=1 17 15 15 9 14 8 9 17 7 11 7 9 8 7 7 7
split_gain=4015.77 0.250752 0.6669 3.3828 1.89657 0.18081 0.0528925 0.065387 0.0994307 0.117196 0.291821 0.0302352 0.0611736 0.0926872 4.54747e-13 7.10543e-15 7.10543e-15
threshold=0 1.0000000180025095e-35 0.37500000000000006 0.45000000000000007 6.5000000000000009 0.062607584231806235 1.5000000000000002 11.500000000000002 2.5000000000000004 5.5000000000000009 1.0000000180025095e-35 20.500000000000004 1.5000000000000002 1.0000000180025095e-35 12.500000000000002 19.500000000000004 21.500000000000004
decision_type=9 2 2 2 2 2 2 2 2 2 2 2 2 2 2 2 2
left_child=14 2 -2 4 -4 6 7 11 9 -9 -11 -3 13 -13 -1 -10 -14
right_child=1 5 3 -5 -6 -7 -8 8 15 10 -12 12 16 -15 -16 -17 -18
leaf_value=0.39059106621837603 0.60469860930621588 0.60469860930621588 0.5533127989651343 0.60469860930621588 0.59496644825676859 0.59496644825676859 0.60469860930621588 0.60469860930621577 0.60469860930621588 0.58883879129970917 0.60469860930621588 0.60469860930621588 0.60469860930621588 0.59496644825676859 0.39059106621837603 0.60469860930621588 0.60469860930621588
leaf_weight=203.63597691059113 72.860578894615173 70.291776433587074 5.8381874114274961 34.328541979193687 5.1376049220561981 5.1376049220561972 367.57227942347527 6.071714907884604 7.7064073830842954 6.3052424043416959 5.371132418513298 4.6705499291420001 6.5387699007987967 5.1376049220561981 152.96051017940044 6.3052424043416977 8.1734623759984952
leaf_count=872 312 301 25 147 22 22 1574 26 33 27 23 20 28 22 655 27 35
internal_value=0.525749 0.602554 0.601737 0.596973 0.57281 0.604298 0.604395 0.603514 0.60155 0.599064 0.596134 0.604171 0.602659 0.599601 0.394261 0.604699 0.604699
internal_weight=974.043 617.447 118.165 45.3043 10.9758 499.282 494.144 126.572 31.7597 17.7481 11.6764 94.8122 24.5204 9.80815 356.596 14.0116 14.7122
internal_count=4171 2644 506 194 47 2138 2116 542 136 76 50 406 105 42 1527 60 63
cat_boundaries=0 1
cat_threshold=2048
is_linear=0
shrinkage=1


Tree=1
num_leaves=63
num_cat=2
split_feature=3 16 16 16 3 8 16 9 16 7 18 18 7 11 13 18 9 9 7 7 8 7 8 18 16 13 8 7 9 9 8 7 7 8 7 7 7 7 7 18 7 18 7 7 7 8 8 7 7 18 9 7 18 8 7 11 16 9 7 8 16 7
split_gain=1035.82 422.162 80.0314 52.1502 40.1815 20.0799 17.1538 13.0843 11.2156 9.2945 7.7323 7.33082 6.84111 5.45061 5.2921 5.27225 4.92093 4.71237 6.48984 4.25198 4.14932 4.07268 4.02368 3.95952 3.42659 2.92607 2.52855 1.96301 2.10286 2.08184 1.91153 1.6084 5.43108 3.03215 1.67645 1.4693 3.67483 1.44275 1.36666 1.44551 1.30464 1.09061 1.73975 1.09904 0.983054 0.973472 1.44476 1.78082 0.93941 0.898851 0.813127 0.804494 1.08268 0.854575 0.798145 0.783123 0.926087 0.759857 0.783028 1.68079 0.747438 0.73222
threshold=0 1.0000000180025095e-35 1.5000000000000002 1.0000000180025095e-35 1 2.5000000000000004 5.5000000000000009 11.500000000000002 2.5000000000000004 14.500000000000002 1.5000000000000002 1.0000000180025095e-35 16.500000000000004 1.0000000180025095e-35 1.0000000180025095e-35 1.5000000000000002 11.500000000000002 11.500000000000002 20.500000000000004 7.5000000000000009 1.0000000180025095e-35 3.5000000000000004 3.5000000000000004 2.5000000000000004 2.5000000000000004 1.0000000180025095e-35 5.5000000000000009 19.500000000000004 1.5000000000000002 1.5000000000000002 4.5000000000000009 8.5000000000000018 18.500000000000004 1.5000000000000002 21.500000000000004 20.500000000000004 5.5000000000000009 1.0000000180025095e-35 21.500000000000004 1.0000000180025095e-35 19.500000000000004 1.0000000180025095e-35 5.5000000000000009 3.5000000000000004 20.500000000000004 4.5000000000000009 2.5000000000000004 5.5000000000000009 19.500000000000004 1.0000000180025095e-35 1.5000000000000002 21.500000000000004 1.5000000000000002 4.5000000000000009 10.500000000000002 1.0000000180025095e-35 1.5000000000000002 6.5000000000000009 2.5000000000000004 4.5000000000000009 2.5000000000000004 7.5000000000000009
decision_type=9 2 2 2 9 2 2 2 2 2 2 2 2 2 2 2 2 2 2 2 2 2 2 2 2 2 2 2 2 2 2 2 2 2 2 2 2 2 2 2 2 2 2 2 2 2 2 2 2 2 2 2 2 2 2 2 2 2 2 2 2 2
left_child=3 11 4 7 15 8 17 31 16 22 14 12 13 20 26 21 50 18 19 24 -2 -3 -9 40 -7 51 27 29 -29 -6 48 33 -33 -1 -34 36 60 -22 39 -23 -12 -31 43 -43 -11 46 -5 -48 -14 -30 -4 -13 53 -53 -27 56 -49 58 -35 -60 -19 -15
right_child=1 2 5 45 10 6 -8 9 -10 44 23 25 30 61 -16 -17 -18 35 -20 -21 37 38 -24 -25 -26 54 -28 28 49 41 -32 32 34 57 -36 -37 -38 -39 -40 -41 -42 42 -44 -45 -46 -47 47 55 -50 -51 -52 52 -54 -55 -56 -57 -58 -59 59 -61 -62 -63
leaf_value=-0.096301306388492658 0.0056682694489258835 -0.0044395950558527965 -0.029908142054761527 -0.11758632574928614 -0.014710349905678911 -0.050883970978969045 0.01902644041620739 -0.091158665562302066 -0.11613429724195645 0.010639865908653484 0.0078918583381514563 0.061780237928844919 0.049107951468518839 0.025147791746193322 -0.069359632853957423 0.065575938108571305 -0.096410364226384077 -0.013811305845969294 -0.10969260069416187 -0.025898867895508798 0.026582028129635806 0.027300098201604301 -0.040919952945014465 -0.029930409823852491 -0.099867618230836758 0.023168942520049106 0.001701460121906984 -0.041295658698977999 0.0057616842720579963 -0.057401555426077611 0.041772277799983576 -0.11262491707891925 -0.059396204608298898 -0.041318212624151085 -0.088732586325054319 -0.014710349905678911 -0.075533375738772557 0.049785679625053175 0.016712189984235085 0.051407013765266768 0.039142243096028678 -0.033631143475579044 -0.013811305845969311 -0.065711774850258101 -0.018111135424375615 -0.12246694154645794 -0.12047925372134245 -0.089476859708273446 0.064704848976473758 -0.019170587976988319 -0.054881251884808073 0.063128500236980759 0.038686887092310773 0.043414831073186846 0.049563113668474323 -0.087160044028664119 -0.11262491707891925 -0.075533375738772557 -0.045915731059947396 -0.085868711376179657 -0.040221940616504845 0.00092129516064916859
leaf_weight=8.3667483478784579 6.7529869675636283 7.6998288482427588 5.8714191913604754 58.39448556303978 8.4206385612487775 9.4446078687906319 9.9710012674331647 6.9080247133970323 17.775268539786339 5.8102587908506376 9.7669952809810656 290.13676445186138 11.978010073304175 4.6345426291227332 7.593679502606391 12.374732643365858 6.6907340288162223 5.8463065475225502 6.4744959622621527 8.9149235785007459 7.6373714804649344 10.646933346986771 9.4207921922206861 5.8707707077264777 5.7401572018861762 6.2569124549627286 7.6862998008728018 6.1243534982204464 7.4455975741147977 8.9876675754785555 14.986409381031988 12.239117324352263 12.766601890325548 6.1237050145864549 7.8731118142604819 6.3154789209365836 5.7034609615802756 54.532898277044296 7.1926632672548285 14.950117275118828 5.0752715468406668 6.1114729344844836 5.846306547522544 4.7406520545482635 6.0887098759412766 32.241866305470467 13.467092618346213 6.678501948714259 49.763672903180122 7.0264061391353607 7.3272161483764648 23.853728353977207 8.7702438533306104 7.1437349468469611 5.282275602221489 10.011636883020403 12.239117324352263 6.6540377885103217 5.8952348679304105 4.7562149465084076 4.9446580410003662 9.5369339734315854
leaf_count=35 29 33 25 243 36 40 43 29 74 25 42 1265 52 20 32 54 28 25 27 38 33 46 40 25 24 27 33 26 32 38 65 51 54 26 33 27 24 237 31 65 22 26 25 20 26 134 56 28 217 30 31 104 38 31 23 42 51 28 25 20 21 41
internal_value=0.000660856 0.029196 -0.0242653 -0.090811 -0.000272846 -0.0583614 -0.0411734 -0.0660847 -0.087273 -0.0376819 -0.0198208 0.0558636 0.0470256 0.0370852 -0.0299487 0.0311259 -0.0614794 -0.0524175 -0.0652487 -0.0533086 0.0428919 0.0282844 -0.0621738 0.00482897 -0.0694008 0.0600005 -0.0251518 -0.028925 -0.0167365 -0.0362853 0.0577909 -0.0784814 -0.0862354 -0.0704633 -0.0705867 -0.0352186 -0.0430709 0.0469352 0.0359689 0.0413799 0.0185778 -0.0433582 -0.0357996 -0.0476453 -0.00407204 -0.114905 -0.112486 -0.10546 0.061679 -0.00634336 -0.043772 0.0608661 0.0541969 0.0585853 0.0352514 -0.0984683 -0.104453 -0.0612363 -0.0555652 -0.063756 -0.0259132 0.00884416
internal_weight=971.782 745.847 244.58 225.935 143.56 101.02 63.3551 92.9026 37.6646 28.2278 90.6961 501.266 159.823 83.0947 69.9831 52.8643 19.8894 53.3841 30.5742 24.0997 68.9233 40.4895 16.3288 20.713 15.1848 341.444 62.3894 54.7031 20.5964 34.1067 76.7281 64.6748 32.8788 31.7959 20.6397 22.8099 16.4944 62.1703 32.7897 25.5971 14.8423 25.6861 16.6984 10.8521 11.899 133.033 100.791 42.3963 61.7417 14.472 13.1986 329.904 39.7677 30.9975 11.5392 28.9293 18.9176 23.4292 16.7752 10.6514 10.791 14.1715
internal_count=4171 3225 1043 946 616 427 269 392 158 120 387 2182 694 360 298 229 84 226 129 102 299 175 69 89 64 1488 266 233 88 145 334 272 138 134 87 97 70 270 142 111 64 109 71 46 51 554 420 177 269 62 56 1438 173 135 50 121 79 99 71 45 46 61
cat_boundaries=0 2 4
cat_threshold=889204736 906584 1179714 3146247
is_linear=0
shrinkage=0.05


end of trees

feature_importances:
hour=28
day_of_week=12
month=10
events_in_corridor_1h=8
vehicle_event_count=8
is_rush_hour=3
police_station=2
has_end_coords=2
cause_severity=2
events_in_corridor_24h=2
corridor_clean=1
displacement_km=1

parameters:
[boosting: gbdt]
[objective: binary]
[metric: binary_logloss,auc]
[tree_learner: serial]
[device_type: cpu]
[data_sample_strategy: bagging]
[data: ]
[valid: ]
[num_iterations: 500]
[learning_rate: 0.05]
[num_leaves: 63]
[num_threads: -1]
[seed: 42]
[deterministic: 0]
[force_col_wise: 0]
[force_row_wise: 0]
[histogram_pool_size: -1]
[max_depth: -1]
[min_data_in_leaf: 20]
[min_sum_hessian_in_leaf: 0.001]
[bagging_fraction: 0.8]
[pos_bagging_fraction: 1]
[neg_bagging_fraction: 1]
[bagging_freq: 5]
[bagging_seed: 400]
[bagging_by_query: 0]
[feature_fraction: 0.8]
[feature_fraction_bynode: 1]
[feature_fraction_seed: 30056]
[extra_trees: 0]
[extra_seed: 12879]
[early_stopping_round: 0]
[early_stopping_min_delta: 0]
[first_metric_only: 0]
[max_delta_step: 0]
[lambda_l1: 0]
[lambda_l2: 0]
[linear_lambda: 0]
[min_gain_to_split: 0]
[drop_rate: 0.1]
[max_drop: 50]
[skip_drop: 0.5]
[xgboost_dart_mode: 0]
[uniform_drop: 0]
[drop_seed: 17869]
[top_rate: 0.2]
[other_rate: 0.1]
[min_data_per_group: 100]
[max_cat_threshold: 32]
[cat_l2: 10]
[cat_smooth: 10]
[max_cat_to_onehot: 4]
[top_k: 20]
[monotone_constraints: ]
[monotone_constraints_method: basic]
[monotone_penalty: 0]
[feature_contri: ]
[forcedsplits_filename: ]
[refit_decay_rate: 0.9]
[cegb_tradeoff: 1]
[cegb_penalty_split: 0]
[cegb_penalty_feature_lazy: ]
[cegb_penalty_feature_coupled: ]
[path_smooth: 0]
[interaction_constraints: ]
[verbosity: -1]
[saved_feature_importance_type: 0]
[use_quantized_grad: 0]
[num_grad_quant_bins: 4]
[quant_train_renew_leaf: 0]
[stochastic_rounding: 1]
[linear_tree: 0]
[max_bin: 255]
[max_bin_by_feature: ]
[min_data_in_bin: 3]
[bin_construct_sample_cnt: 200000]
[data_random_seed: 175]
[is_enable_sparse: 1]
[enable_bundle: 1]
[use_missing: 1]
[zero_as_missing: 0]
[feature_pre_filter: 1]
[pre_partition: 0]
[two_round: 0]
[header: 0]
[label_column: ]
[weight_column: ]
[group_column: ]
[ignore_column: ]
[categorical_feature: 0,1,2,3,4,5,6]
[forcedbins_filename: ]
[precise_float_parser: 0]
[parser_config_file: ]
[objective_seed: 16083]
[num_class: 1]
[is_unbalance: 0]
[scale_pos_weight: 1]
[sigmoid: 1]
[boost_from_average: 1]
[reg_sqrt: 0]
[alpha: 0.9]
[fair_c: 1]
[poisson_max_delta_step: 0.7]
[tweedie_variance_power: 1.5]
[lambdarank_truncation_level: 30]
[lambdarank_norm: 1]
[label_gain: ]
[lambdarank_position_bias_regularization: 0]
[eval_at: ]
[multi_error_top_k: 1]
[auc_mu_weights: ]
[num_machines: 1]
[local_listen_port: 12400]
[time_out: 120]
[machine_list_filename: ]
[machines: ]
[gpu_platform_id: -1]
[gpu_device_id: -1]
[gpu_use_dp: 0]
[num_gpu: 1]

end of parameters

pandas_categorical:[]
