tree
version=v4
num_class=1
num_tree_per_iteration=1
label_index=0
max_feature_idx=8
objective=poisson
feature_names=time_slot day_of_week is_weekend month lag_1_count lag_6_count rolling_7d_mean rolling_7d_max corridor_clean
feature_infos=[0:5] [0:6] [0:1] [1:12] [0:24] [0:24] [0:5.1428571428571432] [0:24] -1:0:1:2:3:4:5:6:7:8:9:10:11:12:13:14:15:16:17:18:19:20:21
tree_sizes=3310 3363 3359 3380 3384 3400 3412 3398 3403 3395 3412 3382 3369 3366 3352 3433 3397 3391 3411 3413 3413 3400 3410 3425 3419 3409 3416 3413 3417 3409 3433 3438 3437 3431 3440 3431 3404 3444 3429 3438 3446 3424 3457 3412 3438 3427 3452 3402 3400 3468 3436 3413 3434 3445 3428 3408 3418 3446 3438 3422 3438 3466 3477 3425 3410 3449 3441 3449 3434 3465 3435 3451 3456 3456 3433 3437 3459 3459 3421 3444 3454 3414 3417 3459 3442 3460 3430 3490 3454 3393 3456 3435 3459 3437 3468 3479 3414 3419 3452 3453 3455 3432 3452 3471 3439 3427 3467 3463 3438 3438 3423 3484 3410 3440 3412 3447 3424 3423 3435 3450 3455 3434 3452 3483 3423 3434 3479 3462 3436 3455 3462 3449 3461 3431 3473 3441 3452 3465 3469 3432 3452 3458 3436 3443 3448 3456 3477 3468 3436 3428 3433 3470 3465 3483 3445 3450 3459 3451 3477 3443 3442 3461 3427 3452 3455 3443 3455 3428 3443 3460 3452 3476 3443 3447 3441 3450 3466 3429 3455 3466 3462 3454 3463 3496 3434 3474 3452 3447 3437 3478 3436 3485 3464 3457 3444 3442 3443 3407 3473 3437 3469 3451 3445 3439 3426 3403 3406 3461 3444 3452 3492 3457 3438 3447 3432 3429 3475 3488 3434 3430 3467 3430 3437 3453 3435 3455 3482 3451 3457 3438 3466 3448 3439 3458 3480 3413 3457 3429 3464 3459 3421 3427 3444 3425 3433 3421 3464 3463 3454 3469 3421 3458 3437 3449 3443 3427 3417 3445 3466 3448 3451 3433 3447 3464 3449 3445 3458 3454 3460 3459 3443 3466 3456 3451 3452 3423 3458 3458 3424 3425 3457 3449 3445 3455 3467 3450 3450 3457

Tree=0
num_leaves=31
num_cat=0
split_feature=6 5 6 0 0 0 6 0 0 1 6 0 6 0 6 0 6 3 0 1 6 6 6 1 0 1 6 0 0 6
split_gain=5440.93 1987.46 500.071 332.867 309.039 262.159 215.586 135.29 207.902 111.621 120.067 103.687 91.3983 85.147 78.7433 73.2908 62.3084 53.4739 50.6351 45.7277 45.2506 45.079 38.0762 29.7864 21.7897 19.7857 13.9659 13.4031 12.3507 12.3272
threshold=1.3214285714285716 2.5000000000000004 0.38278388278388281 4.5000000000000009 1.5000000000000002 1.5000000000000002 3.5595238095238098 1.5000000000000002 4.5000000000000009 4.5000000000000009 2.9880952380952386 3.5000000000000004 0.16441441441441443 4.5000000000000009 0.9642857142857143 1.5000000000000002 2.9404761904761911 6.5000000000000009 2.5000000000000004 1.5000000000000002 0.54304029304029322 0.57738095238095244 2.6547619047619051 3.5000000000000004 3.5000000000000004 5.5000000000000009 0.072751322751322761 4.5000000000000009 2.5000000000000004 0.45346320346320351
decision_type=2 2 2 2 2 2 2 2 2 2 2 2 2 2 2 2 2 2 2 2 2 2 2 2 2 2 2 2 2 2
left_child=2 4 12 5 22 6 16 14 24 10 -5 18 26 15 20 -14 17 23 -6 -13 -4 29 -2 -3 28 -15 -1 -28 -9 -10
right_child=1 3 7 9 11 -7 -8 8 21 -11 -12 19 13 25 -16 -17 -18 -19 -20 -21 -22 -23 -24 -25 -26 -27 27 -29 -30 -31
leaf_value=-1.0497210276286497 -0.87738050371872722 -0.87183136013784579 -1.0067261450435647 -0.64019664985924196 -0.96547316201360556 -0.92038636804164375 -0.54928738724584281 -1.031981282175062 -1.0141400478693057 -0.71922991034058603 -0.46258201545883304 -0.84408564354858218 -1.0285089636815896 -1.0125581983541849 -0.88570421884198347 -1.0459114656803163 -0.69235124447983776 -0.71980794080717714 -1.0325933200456918 -0.94624033410634256 -0.97603097691590712 -0.95486890754106069 -0.7810271903383742 -0.77787426822509464 -1.0217451952045102 -1.0413403619278905 -1.0455316311264551 -1.0329215898166066 -1.0479746363215456 -0.98524807136029513
leaf_weight=2075.2751283049583 18.02079826593399 18.02079826593399 253.01200765371323 23.787453711032867 51.899899005889893 21.624957919120789 14.416638612747191 245.08285641670227 67.037369549274445 18.02079826593399 15.85830247402191 15.13747054338455 1003.3980474472046 435.38248610496521 18.02079826593399 1523.8387013673782 23.066621780395508 17.299966335296631 61.270714104175568 39.645756185054779 228.503722012043 100.19563835859299 23.787453711032867 15.85830247402191 253.01200765371323 69.199865341186523 1226.1351140141487 254.45367151498795 237.87453711032867 82.174840092658997
leaf_count=2879 25 25 351 33 72 30 20 340 93 25 22 21 1392 604 25 2114 32 24 85 55 317 139 33 22 351 96 1701 353 330 114
internal_value=-1.02705 -0.841571 -1.03573 -0.713395 -0.944199 -0.764294 -0.726223 -1.00952 -1.02026 -0.616051 -0.569151 -0.974479 -1.04164 -1.03526 -0.988319 -1.039 -0.760579 -0.79133 -1.00181 -0.918013 -0.99216 -0.980809 -0.822559 -0.827851 -1.03363 -1.01651 -1.04707 -1.04336 -1.03986 -0.998229
internal_weight=8450.31 377.716 8072.6 167.954 209.762 110.287 88.6623 1484.91 985.377 57.6666 39.6458 167.954 6587.68 3031.82 499.537 2527.24 74.2457 51.1791 113.171 54.7832 481.516 249.408 41.8083 33.8791 735.969 504.582 3555.86 1480.59 482.957 149.212
internal_count=11723 524 11199 233 291 153 123 2060 1367 80 55 233 9139 4206 693 3506 103 71 157 76 668 346 58 47 1021 700 4933 2054 670 207
is_linear=0
shrinkage=1


Tree=1
num_leaves=31
num_cat=0
split_feature=6 0 0 6 7 0 0 6 0 0 7 6 1 6 1 6 6 1 0 0 0 1 6 0 7 6 0 0 0 1
split_gain=4245.8 691.737 906.006 477.492 179.254 120.475 188.276 90.6698 81.6841 71.9496 70.2022 65.6066 61.9714 52.7516 45.7572 36.7885 28.2513 21.8998 21.0017 20.163 56.0399 18.6002 16.2858 15.8814 14.2592 14.0837 13.2694 12.9729 12.2032 10.8021
threshold=1.3214285714285716 4.5000000000000009 1.5000000000000002 0.38278388278388281 22.500000000000004 1.5000000000000002 4.5000000000000009 0.16441441441441443 4.5000000000000009 1.5000000000000002 10.500000000000002 0.84523809523809534 1.0000000180025095e-35 2.9404761904761911 2.5000000000000004 0.57738095238095244 0.50714285714285723 3.5000000000000004 3.5000000000000004 3.5000000000000004 2.5000000000000004 5.5000000000000009 2.4404761904761911 1.0000000180025095e-35 5.5000000000000009 0.072751322751322761 4.5000000000000009 1.0000000180025095e-35 2.5000000000000004 5.5000000000000009
decision_type=2 2 2 2 2 2 2 2 2 2 2 2 2 2 2 2 2 2 2 2 2 2 2 2 2 2 2 2 2 2
left_child=3 2 4 7 12 11 18 25 9 -9 -3 16 -2 22 -12 29 -5 -13 28 20 -4 -10 -14 -24 -17 -1 -27 -15 -7 -8
right_child=1 10 19 5 -6 6 15 8 21 -11 14 17 13 27 -16 24 -18 -19 -20 -21 -22 -23 23 -25 -26 26 -28 -29 -30 -31
leaf_value=-0.022316162232576917 0.10165172794993718 0.21781454789732352 0.061839387253472614 0.017469763276063817 0.32143601768349295 -0.004538243388808475 0.033555634073846582 -0.0011322293006702535 0.014209355754108588 -0.018444780252049296 0.35525333739358755 0.058317303501825506 0.13542058525320083 0.20635210513809668 0.2632436543814613 0.056540529284342361 0.042206276074320218 0.12036533157947871 0.0054339993948160402 0.06338041749614394 -0.0051410759401139573 -0.01383839057579752 0.15564257822632033 0.21048335931602691 0.10189588595494883 -0.018060400613747703 -0.0054647168222843826 0.26057083259647446 -0.02053776034650329 -0.0017839206173256045
leaf_weight=2029.3630741238594 22.533029794692993 43.067242622375488 64.036994099617004 222.22732293605804 25.558438777923584 243.95025372505188 127.601487159729 1002.2350616455078 441.87011933326721 1495.8138509988785 23.810613632202148 30.668734073638916 26.521085500717163 20.546638369560242 31.242089629173279 86.027008652687073 240.17110508680344 26.516138076782227 254.43387722969055 65.752419710159302 60.950249433517456 68.238424301147461 26.042843222618103 26.772894024848938 21.700506687164307 1204.0425748229027 253.03971189260483 23.826200723648071 233.01854252815247 26.035627067089081
leaf_count=2879 25 42 83 302 23 340 172 1392 604 2114 22 39 30 21 29 111 318 34 351 82 85 96 29 29 28 1701 353 24 330 35
internal_value=0.000248637 0.147857 0.115982 -0.00824368 0.199267 0.0170592 0.00684986 -0.0141358 -0.00777564 -0.0114989 0.265632 0.0365661 0.177916 0.191807 0.303038 0.0432748 0.030318 0.0870884 -0.0061665 0.0409672 0.0291762 0.0104573 0.167389 0.183442 0.0656769 -0.0196234 -0.015873 0.235465 -0.0123547 0.0275669
internal_weight=8467.61 460.661 362.541 8006.95 171.801 1512.35 992.767 6494.6 3008.16 2498.05 98.1199 519.583 146.243 123.71 55.0527 261.365 462.398 57.1849 731.403 190.74 124.987 510.109 79.3368 52.8157 107.728 3486.45 1457.08 44.3728 476.969 153.637
internal_count=11723 524 431 11199 181 2060 1367 9139 4206 3506 93 693 158 133 51 346 620 73 1021 250 168 700 88 58 139 4933 2054 45 670 207
is_linear=0
shrinkage=0.05


Tree=2
num_leaves=31
num_cat=0
split_feature=6 5 6 0 0 0 6 7 0 0 0 4 6 4 0 0 6 1 6 1 0 7 1 7 6 7 7 0 7 0
split_gain=3473.25 600.234 456.186 138.983 107.676 171.09 89.9126 89.7423 78.3705 70.6116 63.6298 62.8443 53.1468 43.1421 39.205 38.5378 31.0091 26.9479 20.9174 20.2929 20.2402 17.9395 17.5 17.0293 14.1983 14.0925 13.1722 13.132 12.4172 12.0535
threshold=1.3214285714285716 2.5000000000000004 0.38278388278388281 1.5000000000000002 1.5000000000000002 4.5000000000000009 0.16441441441441443 22.500000000000004 4.5000000000000009 1.5000000000000002 3.5000000000000004 1.0000000180025095e-35 0.79761904761904778 2.5000000000000004 4.5000000000000009 2.5000000000000004 0.45346320346320351 1.0000000180025095e-35 0.50714285714285723 5.5000000000000009 3.5000000000000004 9.5000000000000018 5.5000000000000009 5.5000000000000009 0.072751322751322761 5.5000000000000009 11.500000000000002 4.5000000000000009 10.500000000000002 2.5000000000000004
decision_type=2 2 2 2 2 2 2 2 2 2 2 2 2 2 2 2 2 2 2 2 2 2 2 2 2 2 2 2 2 2
left_child=2 3 6 -2 12 20 24 14 9 -8 15 -12 18 25 17 -5 -7 -3 -4 23 29 -19 -10 -18 -1 -14 -23 -26 -16 -6
right_child=1 7 4 10 5 16 8 -9 22 -11 11 -13 13 -15 28 -17 19 21 -20 -21 -22 26 -24 -25 27 -27 -28 -29 -30 -31
leaf_value=-0.022259448120624008 0.13159733887467753 0.092370625914836579 0.016737225351707491 0.051786304310586985 -0.0044459479917754964 0.011648359411933634 -0.0011053845430872998 0.23082275069341882 0.01365856511680608 -0.018325927590323778 0.04415610559197438 0.14235906960911512 0.070568071081069605 0.14129767049533687 0.16427557652611768 -0.0050395982392569347 0.050889864107796251 0.12581107890031962 0.03822750246356095 0.015466386610479022 0.0052699943941258189 0.18123575674353704 -0.013685236635022545 0.096060390942993013 -0.01793704231669227 0.024128198513862775 0.13469350510571837 -0.0053586045527585415 0.19981608425720121 -0.020448711785220414
leaf_weight=1984.5770707726479 61.370634853839874 23.037564277648926 226.14369606971741 58.734798431396484 242.84565806388855 69.905868411064148 1001.1009492874146 53.392889857292175 448.19362306594849 1468.4767316579819 40.588316321372986 27.214817225933075 42.454015493392944 17.155556440353394 46.535032391548157 60.637703537940979 143.9530543088913 42.153382301330566 226.7797799706459 34.743202984333038 255.82024347782135 49.498939514160156 67.300621032714844 24.402418851852417 1182.4922559857368 26.553663313388824 21.940441429615021 251.6607004404068 52.082092642784119 228.28166663646698
leaf_count=2879 58 24 302 72 340 93 1392 37 604 2114 47 29 52 20 35 85 180 38 288 44 351 44 96 29 1701 31 20 353 35 330
internal_value=0.000211927 0.123257 -0.00810981 0.0663006 0.0163328 0.00662224 -0.0139841 0.172302 -0.00764375 -0.0113452 0.0448913 0.0835728 0.0343449 0.0703389 0.15902 0.0229204 0.0403711 0.141678 0.0274975 0.0502574 -0.00605212 0.151678 0.0100887 0.0574371 -0.0195203 0.0526983 0.166942 -0.0157298 0.183045 -0.0122
internal_weight=8480.03 537.187 7942.84 248.546 1539.04 999.952 6403.8 288.64 2985.07 2469.58 187.176 67.8031 539.087 86.1632 235.247 119.373 273.005 136.63 452.923 203.099 726.948 113.593 515.494 168.355 3418.73 69.0077 71.4394 1434.15 98.6171 471.127
internal_count=11723 524 11199 291 2060 1367 9139 233 4206 3506 233 76 693 103 196 157 346 126 590 253 1021 102 700 209 4933 83 64 2054 70 670
is_linear=0
shrinkage=0.05


Tree=3
num_leaves=31
num_cat=0
split_feature=6 6 5 0 0 6 0 0 0 0 0 6 7 6 6 6 6 0 1 6 7 4 0 0 0 1 7 6 6 0
split_gain=2925.64 436.031 393.402 96.5381 155.945 89.1273 75.1981 72.8657 125.042 69.2775 59.9391 45.7225 38.0591 28.3304 26.6514 25.2309 20.3621 19.5043 16.4776 14.3094 14.2527 18.5677 21.1909 12.9912 11.9016 11.8192 11.0588 10.7909 10.0117 9.57186
threshold=1.3214285714285716 0.38278388278388281 1.5000000000000002 1.5000000000000002 4.5000000000000009 0.16441441441441443 4.5000000000000009 4.5000000000000009 1.5000000000000002 1.5000000000000002 1.5000000000000002 0.9642857142857143 22.500000000000004 0.50714285714285723 0.57738095238095244 3.1547619047619051 2.9404761904761911 3.5000000000000004 5.5000000000000009 0.072751322751322761 13.000000000000002 3.5000000000000004 3.5000000000000004 4.5000000000000009 2.5000000000000004 1.0000000180025095e-35 3.5000000000000004 0.26253132832080206 0.79761904761904778 1.5000000000000002
decision_type=2 2 2 2 2 2 2 2 2 2 2 2 2 2 2 2 2 2 2 2 2 2 2 2 2 2 2 2 2 2
left_child=1 5 10 11 17 19 9 8 12 27 -2 13 16 -3 -6 -9 -4 24 -8 -1 21 22 -12 29 -5 -15 -27 -7 -19 -21
right_child=2 3 7 4 14 6 18 15 -10 -11 20 -13 -14 25 -16 -17 -18 28 -20 23 -22 -23 -24 -25 -26 26 -28 -29 -30 -31
leaf_value=-0.022201604696722218 0.11312980959892155 0.016047308780427157 0.11111107339751021 -0.0043551233098116648 0.024562511752420354 -0.0044933611993104436 0.013136449055169603 0.14771882623665231 0.054900173948003478 -0.018205650361916025 0.013296651659245977 0.099712388536271901 0.17586571361569894 0.014934209312563033 0.05551136301048723 0.19517321497578344 0.14657900580325467 0.00090519487739735844 -0.013531679820333754 -0.012324662522666827 0.0035785087597235369 0.087705012154285444 0.062259938761527703 -0.0052539901200491634 -0.02035821426795046 0.026976840793092489 0.0497777838315131 0.0068223222076259403 0.028248059141272399 -0.021566717336696101
leaf_weight=1940.8894903659821 25.732268810272217 229.96056187152863 112.18156576156616 241.76838040351868 162.98259472846985 698.27234530448914 454.35731744766235 112.7221976518631 63.96633505821228 1441.8105847835541 61.637863218784332 24.088326454162598 44.096768736839294 42.75280350446701 121.35827565193176 37.272307276725769 63.29916250705719 217.60704660415649 66.385866165161133 471.82620525360107 36.961714148521423 16.883744597434998 34.447438597679138 250.31575345993042 223.66099834442139 74.315564811229706 186.97965115308762 301.72261834144592 39.56491756439209 689.6446704864502
leaf_count=2879 21 302 93 340 207 972 604 70 69 2114 82 25 23 52 139 20 44 297 96 691 46 20 36 353 330 91 223 420 54 1010
internal_value=0.000184088 -0.00797704 0.105752 0.015649 0.00640391 -0.013832 -0.0075131 0.131328 0.116419 -0.0111918 0.0426294 0.0323293 0.13434 0.0292897 0.0377717 0.159511 0.123905 -0.00593918 0.00973672 -0.0194157 0.0305296 0.0393476 0.0308504 -0.0155857 -0.0120454 0.0393053 0.0432929 -0.00107915 0.00511179 -0.0178123
internal_weight=8489.47 7880.26 609.201 1565.04 1006.94 6315.22 2962.55 433.538 283.544 2441.81 175.663 558.097 219.577 534.009 284.341 149.995 175.481 722.601 520.743 3352.68 149.931 112.969 96.0853 1411.79 465.429 304.048 261.295 999.995 257.172 1161.47
internal_count=11723 11199 524 2060 1367 9139 4206 319 229 3506 205 693 160 668 346 90 137 1021 700 4933 184 138 118 2054 670 366 314 1392 351 1701
is_linear=0
shrinkage=0.05


Tree=4
num_leaves=31
num_cat=2
split_feature=6 6 0 0 0 0 4 6 0 6 6 0 6 6 0 4 0 1 1 3 1 6 8 6 3 0 0 8 4 6
split_gain=2524.39 341.062 176.612 376.41 82.8859 169.273 75.3833 53.1193 54.8886 52.6808 46.1193 43.6197 36.6955 28.6133 17.5227 16.3859 31.9387 15.8984 15.127 12.533 13.0309 20.5868 12.37 11.4514 10.7885 10.3023 9.26013 9.25142 9.88315 8.65003
threshold=0.91666666666666685 0.26253132832080206 4.5000000000000009 1.5000000000000002 1.5000000000000002 4.5000000000000009 7.5000000000000009 0.098780487804878067 4.5000000000000009 0.50714285714285723 2.4404761904761911 1.5000000000000002 2.535714285714286 0.45346320346320351 3.5000000000000004 3.5000000000000004 3.5000000000000004 4.5000000000000009 4.5000000000000009 6.5000000000000009 4.5000000000000009 0.69523809523809532 0 1.7976190476190479 6.5000000000000009 2.5000000000000004 2.5000000000000004 1 1.0000000180025095e-35 1.3214285714285716
decision_type=2 2 2 2 2 2 2 2 2 2 2 2 2 2 2 2 2 2 2 2 2 2 1 2 2 2 2 1 2 2
left_child=1 7 3 6 9 14 10 -1 11 27 29 -9 23 -7 26 16 25 -14 22 -15 21 -21 -10 -4 -17 -5 -6 28 -3 -2
right_child=2 4 12 15 5 13 -8 8 18 -11 -12 -13 17 19 -16 24 -18 -19 -20 20 -22 -23 -24 -25 -26 -27 -28 -29 -30 -31
leaf_value=-0.021121632570499756 0.049464257273116097 0.0094847509210383429 0.06588246740222431 0.022184702310436323 -0.0091922321365584068 0.0149536481905588 0.16601231870340519 -0.0062667207539835908 0.02398133270215384 0.036490693361217429 0.11149849046729721 -0.019881486745782623 0.14837137350060939 0.029419837067796113 -0.0014399420417352156 0.079809089698534494 0.042729993109502297 0.11100207695362152 -0.010373068793849553 0.096399615449246689 0.027084735788876255 0.037991683901609195 0.0031801982903987749 0.11068000090533202 0.031340042415124815 -0.007529343162717566 -0.020550058433746517 0.0032228827683227594 0.028884171592079112 0.081611966375697065
leaf_weight=2386.9674589037895 38.361352562904358 163.19861888885498 24.803847849369049 48.921631574630737 367.71680545806885 232.51188296079636 47.421530723571777 1002.0177775025368 89.328688740730286 303.32701724767685 187.78274416923523 1424.8818237781525 107.96727013587952 108.75756174325943 378.37778741121292 21.980468273162842 99.172196865081787 38.65087366104126 141.80770426988602 30.933223307132721 28.893939852714539 29.448775589466095 293.40791094303131 33.577039837837219 24.034478187561035 72.25466114282608 350.53230130672455 264.42792356014252 109.84216153621674 46.034792304039001
leaf_count=3601 38 219 26 59 531 306 28 1427 121 352 118 2129 51 125 533 24 106 22 198 36 34 32 393 20 27 102 526 357 146 36
internal_value=0.000160901 -0.00857001 0.0852265 0.0712517 0.00722353 0.000282506 0.107836 -0.0155756 -0.0110902 0.0198308 0.0977004 -0.0142602 0.125171 0.0268494 -0.0101479 0.0273551 0.021688 0.13852 0.00357634 0.0408162 0.0546994 0.0679136 0.00874474 0.0916472 0.0544928 0.00446689 -0.0147353 0.0104286 0.0166782 0.0669996
internal_weight=8497.34 7706.38 790.963 585.964 2367.97 1527.17 319.6 5338.41 2951.44 840.796 272.179 2426.9 204.999 430.545 1096.63 266.363 220.348 146.618 524.544 198.034 89.2759 60.382 382.737 58.3809 46.0149 121.176 718.249 537.469 273.041 84.3961
internal_count=11723 11066 657 538 3197 2123 220 7869 4268 1074 192 3556 119 533 1590 318 267 73 712 227 102 68 514 46 51 161 1057 722 365 74
cat_boundaries=0 1 2
cat_threshold=37122 198156
is_linear=0
shrinkage=0.05


Tree=5
num_leaves=31
num_cat=3
split_feature=8 8 5 7 5 4 5 5 7 7 4 1 1 5 7 3 7 1 7 4 1 7 5 8 4 4 4 5 7 1
split_gain=2074.67 321.72 196.576 63.3356 60.6327 40.1028 36.0274 31.6989 46.1442 22.3712 20.2142 20.1826 14.548 12.667 10.2578 9.97243 9.71515 8.48377 8.21426 8.10367 7.90449 8.79537 7.62023 7.13112 7.1057 16.8 6.87917 7.75663 8.02058 6.32897
threshold=0 1 2.5000000000000004 1.5000000000000002 1.5000000000000002 3.5000000000000004 1.0000000180025095e-35 1.0000000180025095e-35 6.5000000000000009 3.5000000000000004 1.5000000000000002 5.5000000000000009 1.0000000180025095e-35 1.0000000180025095e-35 4.5000000000000009 11.500000000000002 6.5000000000000009 3.5000000000000004 2.5000000000000004 1.0000000180025095e-35 4.5000000000000009 7.5000000000000009 1.0000000180025095e-35 2 2.5000000000000004 1.0000000180025095e-35 1.0000000180025095e-35 1.0000000180025095e-35 4.5000000000000009 3.5000000000000004
decision_type=1 1 2 2 2 2 2 2 2 2 2 2 2 2 2 2 2 2 2 2 2 2 2 1 2 2 2 2 2 2
left_child=2 4 6 22 5 9 10 23 18 13 -1 12 -4 19 -6 24 26 -16 -9 -2 21 -8 -3 -5 25 -14 27 28 -11 -17
right_child=1 3 11 7 14 -7 20 8 -10 16 -12 -13 15 -15 17 29 -18 -19 -20 -21 -22 -23 -24 -25 -26 -27 -28 -29 -30 -31
leaf_value=0.0075392256240436927 -0.0058872879682243928 -0.019921890579224402 0.081035144068375295 -0.007969665203577482 0.026120370136640311 0.062783417253589602 0.095833414402280159 -0.0053583207932798036 0.0815569634132641 0.0003524856306655997 0.04978136117186277 0.073206179383894995 0.0829830821522929 0.010472980940182468 0.067062808627006851 0.10706817268522058 -0.0060376765903823199 0.031898012831665948 0.0077461027080644885 0.0053106149126707445 0.043368466652301964 0.061667524502363902 -0.0097622873922902295 -0.013673353379017601 0.091166478004308105 0.12353690388080454 0.021296839472684428 0.021892065091162302 0.017246591783811965 0.12953599592271819
leaf_weight=64.877909481525421 549.04511040449142 2526.8090150952339 60.454689621925354 1193.9604761600494 194.30953687429428 30.81745570898056 21.962051808834076 305.58352595567703 17.859454274177551 200.54205447435379 50.260937392711639 63.242432594299316 38.956576704978943 243.61056196689606 32.646994650363922 59.895022392272949 66.519123911857605 36.1378173828125 196.46746623516083 228.93256372213364 48.388706147670746 132.37485486268997 199.11092662811279 1276.1603981256485 97.848418831825256 74.140891075134277 215.7129915356636 107.01750069856644 108.13802462816238 65.753135204315186
leaf_count=79 779 3865 36 1733 235 38 19 432 20 277 55 34 22 318 36 25 80 39 269 308 44 117 294 1883 55 37 269 134 145 31
internal_value=0.000277885 -0.00759297 0.0775595 -0.0136436 0.00956693 0.00625049 0.0483151 -0.00864214 0.0025793 0.0052373 0.025979 0.0994399 0.103618 0.000523415 0.0319945 0.107675 0.0121372 0.0485881 -0.000230171 -0.00259212 0.061001 0.0665293 -0.0191798 -0.011004 0.101032 0.109568 0.0140519 0.0102924 0.0062709 0.118826
internal_weight=8507.54 7729.38 778.156 5715.95 2013.43 1750.34 317.864 2990.03 519.91 1719.52 115.139 460.291 397.049 1021.59 263.094 336.594 697.93 68.7848 502.051 777.978 202.726 154.337 2725.92 2470.12 210.946 113.097 631.411 415.698 308.68 125.648
internal_count=11708 11154 554 8496 2658 2348 314 4337 721 2310 134 240 206 1405 310 170 905 75 701 1087 180 136 4159 3616 114 59 825 556 422 56
cat_boundaries=0 1 2 3
cat_threshold=2048 525452 352768
is_linear=0
shrinkage=0.05


Tree=6
num_leaves=31
num_cat=2
split_feature=6 6 5 0 0 6 0 0 0 0 6 7 4 0 5 6 6 2 0 4 2 8 6 5 2 8 0 6 2 6
split_gain=1852.9 378.086 171.45 76.7688 154.846 68.5498 55.5895 49.9263 56.3299 45.2759 32.5753 23.4593 21.923 21.3221 20.312 17.6715 20.1053 14.5553 16.9642 13.8665 13.3858 16.9318 12.5888 11.1321 10.3556 9.45008 9.23479 8.76467 8.25373 8.64351
threshold=0.98809523809523825 0.31101190476190482 2.5000000000000004 4.5000000000000009 1.5000000000000002 0.10435571687840291 1.5000000000000002 4.5000000000000009 1.5000000000000002 4.5000000000000009 0.57738095238095244 5.5000000000000009 3.5000000000000004 3.5000000000000004 1.0000000180025095e-35 2.4404761904761911 2.6071428571428577 1.0000000180025095e-35 1.0000000180025095e-35 1.5000000000000002 1.0000000180025095e-35 0 0.82142857142857151 5.5000000000000009 1.0000000180025095e-35 1 2.5000000000000004 0.79761904761904778 1.0000000180025095e-35 0.44590643274853808
decision_type=2 2 2 2 2 2 2 2 2 2 2 2 2 2 2 2 2 2 2 2 2 1 2 2 2 1 2 2 2 2
left_child=1 5 6 4 10 -1 12 8 25 14 24 22 -2 -6 26 -4 -17 18 -12 -19 21 -9 28 -18 -3 -7 -8 -20 29 -5
right_child=2 3 15 11 13 7 9 20 -10 -11 17 -13 -14 -15 -16 16 23 19 27 -21 -22 -23 -24 -25 -26 -27 -28 -29 -30 -31
leaf_value=-0.021034438149313335 0.047983507215445753 0.011439206013699459 0.063078853739450574 0.018547458154020893 -0.013490993008032613 -0.010149070940588971 0.033361973020181949 0.027912316494811282 -0.018726865828323835 0.096394353319877779 0.014212398849385542 0.074236062340459305 0.094208819274340772 0.0027184011168604754 0.038512789521503832 0.12408011938694828 0.078995861574502099 0.040346483652092806 0.033943815860381185 0.088145573159727569 -0.0085712535572421682 0.0028327380084070706 0.066755941680129036 0.095482054846650011 0.027196509769353189 -0.00071598415655316054 0.001712524308377086 0.065968580740420488 0.012860599854284388 0.038619408372812136
leaf_weight=2279.4194935560226 46.008411645889282 358.43804913759232 66.54675430059433 88.757280111312866 573.27957624197006 412.22144144773483 30.932491898536682 75.28930139541626 1597.7322053909302 23.922730922698975 80.683036744594574 29.778329968452454 57.964642524719238 314.00118672847748 124.71966779232025 40.964510202407837 202.26317811012268 39.124981820583344 58.700342357158661 24.784280002117157 172.22278296947479 356.86759769916534 19.653828859329224 207.37865722179413 147.04249995946884 734.33225452899933 90.42344468832016 33.591104865074158 91.536543726921082 135.54262804985046
leaf_count=3578 33 453 41 113 848 602 34 100 2459 16 86 29 36 434 127 21 105 42 65 25 243 478 20 81 185 1046 114 34 111 149
internal_value=0.000258462 -0.00771658 0.0684798 0.0109868 0.00634317 -0.0143461 0.0426893 -0.00979343 -0.0126585 0.0307266 0.023193 0.0317045 0.073754 -0.00775462 0.0243426 0.0871298 0.0906818 0.0384929 0.0309593 0.0588832 0.00321602 0.00791347 0.0279293 0.0873419 0.0160229 -0.00420223 0.00977967 0.0455998 0.0255132 0.0306768
internal_weight=8514.12 7623 891.124 1994.91 1629.65 5628.09 373.971 3348.67 2744.29 269.998 742.364 365.269 103.973 887.281 246.076 517.153 450.606 236.884 172.974 63.9093 604.38 432.157 335.49 409.642 505.481 1146.55 121.356 92.2914 315.836 224.3
internal_count=11708 11100 608 2594 2172 8506 360 4928 4107 291 890 422 69 1282 275 248 207 252 185 67 821 578 393 186 638 1648 148 99 373 262
cat_boundaries=0 1 2
cat_threshold=53248 3182883
is_linear=0
shrinkage=0.05


Tree=7
num_leaves=31
num_cat=0
split_feature=7 7 5 4 5 0 0 5 7 0 0 0 7 1 0 1 4 0 3 0 0 1 0 0 7 1 4 3 7 4
split_gain=1590.4 266.422 184.758 125.482 70.7324 57.8159 69.4901 55.2981 45.2318 31.1835 35.0997 30.1485 20.3991 19.3527 17.3316 16.6103 14.5732 13.6881 13.1958 13.1493 23.7913 14.544 12.8244 11.8211 11.0147 8.92675 9.18259 8.78997 18.7298 8.54611
threshold=6.5000000000000009 2.5000000000000004 1.0000000180025095e-35 3.5000000000000004 1.0000000180025095e-35 1.5000000000000002 3.5000000000000004 2.5000000000000004 1.5000000000000002 4.5000000000000009 1.5000000000000002 4.5000000000000009 4.5000000000000009 4.5000000000000009 4.5000000000000009 5.5000000000000009 1.0000000180025095e-35 1.5000000000000002 1.5000000000000002 4.5000000000000009 1.5000000000000002 4.5000000000000009 1.0000000180025095e-35 4.5000000000000009 20.500000000000004 1.0000000180025095e-35 1.0000000180025095e-35 6.5000000000000009 3.5000000000000004 2.5000000000000004
decision_type=2 2 2 2 2 2 2 2 2 2 2 2 2 2 2 2 2 2 2 2 2 2 2 2 2 2 2 2 2 2
left_child=1 8 3 24 5 12 -7 11 23 10 -10 16 -3 14 -8 25 -4 22 -14 20 21 -6 -18 -1 -2 -9 -27 -16 -29 -28
right_child=2 4 7 -5 19 6 13 15 9 -11 -12 -13 18 -15 27 -17 17 -19 -20 -21 -22 -23 -24 -25 -26 26 29 28 -30 -31
leaf_value=-0.020151614427116958 0.0077339190184446231 0.010353466190390487 0.023712513896823925 0.11702480749406191 0.015570936295538077 -0.017264565970765561 0.0043340388035528268 0.064785419585676005 -0.0041025331959260803 0.0029619774255251127 -0.017649533945999076 0.094245713799134087 0.008236216333022026 -0.0072962991814738282 0.015457398293533032 0.056059821439662517 0.051215833933170335 0.036116876056100845 0.058473009598309394 0.028686097978678174 -0.0012270335171567926 0.038512434460084864 0.090256553779935633 -0.011318301337934851 -0.020563905010965271 0.068323400726055333 0.097674522297297353 0.018779213060514489 0.07042909659321421 0.081255991967471339
leaf_weight=2255.4054723381996 128.98001611232758 464.7166188955307 64.892553806304932 26.43561714887619 261.13731110095978 627.91658288240433 186.87868672609329 71.416866660118103 829.84620851278305 429.99156737327576 1128.1759172677994 34.012183845043182 19.657962679862976 145.440309882164 78.189646482467651 76.648163676261902 62.462934374809265 78.758062541484833 39.014540612697601 228.90622794628143 167.35705405473709 93.934959173202515 31.715462744235992 455.18587464094162 46.88935661315918 76.755721151828766 127.75115263462067 43.569508969783783 29.393745124340057 208.79432904720306
leaf_count=3588 153 604 66 25 308 957 270 36 1188 582 1759 24 20 202 94 36 38 77 43 259 233 106 20 698 58 39 50 55 33 87
internal_value=0.000240479 -0.00779456 0.058318 0.0154564 0.00599492 0.000158843 -0.00629389 0.0687249 -0.0142479 -0.00923053 -0.0119081 0.0502145 0.0138609 0.00795444 0.0145162 0.0776885 0.0439176 0.0514993 0.0416414 0.0186932 0.0143148 0.0216401 0.0643632 -0.0186682 0.000189304 0.0811086 0.0839292 0.0271049 0.0395867 0.0874884
internal_weight=8520.23 7484.72 1035.51 202.305 2386.11 1634.78 1111.39 833.207 5098.61 2388.01 1958.02 271.841 523.389 483.472 338.032 561.366 237.829 172.936 58.6725 751.336 522.429 355.072 94.1784 2710.59 175.869 484.718 413.301 151.153 72.9633 336.545
internal_count=11708 10999 709 236 3184 2278 1611 473 7815 3529 2947 225 667 654 452 248 201 135 63 906 647 414 58 4286 211 212 176 182 88 137
is_linear=0
shrinkage=0.05


Tree=8
num_leaves=31
num_cat=1
split_feature=6 5 6 4 5 6 0 0 0 0 0 0 6 5 0 4 1 6 6 0 1 1 8 6 4 6 6 4 6 1
split_gain=1518.07 246.483 207.163 64.5448 60.2836 51.3687 41.7359 40.8931 88.9034 39.6249 33.8564 28.3313 24.5671 21.1539 16.3942 15.2841 14.2131 13.8332 12.6524 12.2191 11.6851 10.7577 12.3971 10.1355 9.80681 9.089 23.0203 12.5856 8.56367 7.55296
threshold=0.62770562770562777 2.5000000000000004 0.26253132832080206 5.5000000000000009 1.0000000180025095e-35 0.10435571687840291 4.5000000000000009 4.5000000000000009 1.5000000000000002 1.5000000000000002 4.5000000000000009 1.5000000000000002 2.4404761904761911 1.5000000000000002 3.5000000000000004 3.5000000000000004 1.5000000000000002 1.2976190476190479 2.6071428571428577 3.5000000000000004 5.5000000000000009 4.5000000000000009 0 0.50714285714285723 1.0000000180025095e-35 4.0000000000000009 3.1071428571428577 4.5000000000000009 0.44590643274853808 5.5000000000000009
decision_type=2 2 2 2 2 2 2 2 2 2 2 2 2 2 2 2 2 2 2 2 2 2 1 2 2 2 2 2 2 2
left_child=2 3 5 4 11 -1 9 8 23 -7 17 -2 -3 -5 15 -13 -16 -6 -14 -10 28 22 -8 29 -12 26 27 -20 -9 -4
right_child=1 12 7 13 10 6 21 20 19 -11 24 14 18 -15 16 -17 -18 -19 25 -21 -22 -23 -24 -25 -26 -27 -28 -29 -30 -31
leaf_value=-0.020884955284998952 0.032845902787212708 0.048145414663047899 0.0080456912102185359 0.10603305970931952 0.020800759252612686 -0.0058459648522302191 0.022017539599853156 0.015586784097986379 -0.01478018747791536 -0.01913763936539583 0.090154999283551723 -0.0095742075278076599 0.096626592503171571 0.049609857272762486 0.042897309456501415 0.03356453523874519 0.0062611707128708387 0.041502728951815254 0.071920946322759069 -0.0023692547192728183 -0.0037309632417915559 -0.0095723350261547237 0.0011541949586362664 0.024918206883206586 0.053013716973746197 0.055567761806546871 0.092789915950824836 0.047501522105798888 0.032065890100617611 0.024536789987006841
leaf_weight=2193.0328040719032 112.70014828443527 125.3859561085701 485.17174655199051 30.184394657611847 159.98238259553909 966.63909244537354 87.088642477989197 194.2297705411911 552.28950297832489 1335.2951694726944 31.308632254600525 183.54568237066269 50.224008798599243 36.942939281463623 39.8661829829216 23.118892312049866 78.802369832992554 162.81735754013062 216.02019894123077 309.43886053562164 49.767039000988007 140.91956651210785 286.27665513753891 152.77158093452454 41.108394503593445 86.445982336997986 110.95129144191742 69.81812572479248 132.70022600889206 81.027336895465851
leaf_count=3578 107 88 632 24 179 1413 114 242 852 2135 28 265 21 23 42 24 89 132 88 444 65 202 383 166 30 28 39 31 140 104
internal_value=0.000223894 0.0448208 -0.00975745 0.0278153 0.0240156 -0.0151472 -0.0106791 0.00403561 0.000507627 -0.0135561 0.0381741 0.0112411 0.0680605 0.074981 0.00375682 -0.00474842 0.0185689 0.0312427 0.0727414 -0.0103235 0.0188398 0.00219856 0.00664125 0.0134894 0.0690713 0.0702589 0.0734596 0.0659563 0.0222756 0.0104057
internal_weight=8525.87 1559.22 6966.65 900.377 833.25 5009.25 2816.22 1957.4 1580.7 2301.93 395.217 438.033 658.846 67.1273 325.333 206.665 118.669 322.8 533.46 861.728 376.697 514.285 373.365 718.971 72.417 483.236 396.79 285.838 326.93 566.199
internal_count=11708 1238 10470 943 896 7825 4247 2645 2198 3548 369 527 295 47 420 289 131 311 207 1296 447 699 497 902 58 186 158 119 382 736
cat_boundaries=0 1
cat_threshold=37122
is_linear=0
shrinkage=0.05


Tree=9
num_leaves=31
num_cat=5
split_feature=8 8 4 5 0 0 0 0 8 8 8 0 0 7 1 0 7 0 7 7 1 0 0 1 1 0 4 7 7 0
split_gain=1332 280.352 98.9249 69.8915 64.9779 57.5032 47.2727 96.1895 40.8639 40.0326 26.3125 24.3154 32.9163 23.3118 20.1124 17.3846 10.943 10.8335 10.3398 10.3108 9.89601 9.76744 21.5491 8.86203 8.84104 8.67984 12.4716 7.77374 7.53043 6.93817
threshold=0 1 4.5000000000000009 2.5000000000000004 4.5000000000000009 1.5000000000000002 1.5000000000000002 4.5000000000000009 2 3 4 1.5000000000000002 4.5000000000000009 4.5000000000000009 2.5000000000000004 3.5000000000000004 2.5000000000000004 2.5000000000000004 2.5000000000000004 3.5000000000000004 1.5000000000000002 3.5000000000000004 2.5000000000000004 5.5000000000000009 5.5000000000000009 1.0000000180025095e-35 1.0000000180025095e-35 1.5000000000000002 1.5000000000000002 3.5000000000000004
decision_type=1 1 2 2 2 2 2 2 1 1 1 2 2 2 2 2 2 2 2 2 2 2 2 2 2 2 2 2 2 2
left_child=3 2 6 11 5 9 10 15 13 18 19 -1 21 14 -6 17 -9 -8 -3 -2 -21 22 -13 -5 -18 -12 -27 -10 -11 -7
right_child=1 4 -4 23 8 29 7 16 27 28 25 12 -14 -15 -16 -17 24 -19 -20 20 -22 -23 -24 -25 -26 26 -28 -29 -30 -31
leaf_value=0.056958920413619933 0.016701621713892844 -0.0045460957058706163 0.13099142293319319 0.066354827326508728 0.017614391747854403 -0.022257573269177378 -0.0062107057181780105 0.007339729611452051 -0.016874903180725629 -0.018207498727728616 -0.004149669891877191 0.032695466222291254 0.083642473853975302 0.065856958784322725 -0.0026400888446320731 0.0015980445973506697 0.029946539145959922 -0.020194865213022967 0.0075022621546621095 0.015726740787228553 0.037095841740669648 0.036475667944288977 -0.0048334532977506598 0.048941497646501179 0.0051603638452755929 0.004443129631655037 0.038125469309796149 -0.0029487291282549333 -0.0096527783438856221 -0.016800744047440929
leaf_weight=108.20633661746979 229.94933879375458 463.4384132027626 16.364964663982391 559.30808198451996 222.64810979366302 1730.3785368800163 284.66219490766525 97.920373916625977 308.00709402561188 694.67875987291336 142.65269547700882 84.311563193798065 24.891276001930237 17.091901659965515 272.65545690059662 321.6369754076004 262.88979583978653 269.72207689285278 289.19140988588333 75.204644203186035 193.78246659040451 88.899860799312592 70.014660835266113 84.044136047363281 41.681075751781464 104.19373041391373 37.32840770483017 148.53383964300156 408.5266860127449 878.11941111087799
leaf_count=57 272 686 15 206 296 2847 425 124 497 1145 182 75 12 16 378 450 266 431 386 77 189 78 92 34 47 134 46 207 607 1431
internal_value=0.000209024 -0.0070931 0.00850343 0.0535433 -0.0130628 -0.0156342 0.00757238 0.00164682 -0.00134991 -0.00890652 0.0172465 0.0369527 0.0288786 0.00828414 0.00646467 -0.00764932 0.0218798 -0.0130144 8.22868e-05 0.0239947 0.0311214 0.0232741 0.0156694 0.06408 0.0265545 0.00439925 0.0133273 -0.0120795 -0.0149045 -0.0204206
internal_weight=8530.93 7511.26 2077.99 1019.68 5433.27 4464.33 2061.62 1278.51 968.936 1855.84 783.111 376.324 268.117 512.395 495.304 876.021 402.491 554.384 752.63 498.936 268.987 243.226 154.326 643.352 304.571 284.175 141.522 456.541 1103.21 2608.5
internal_count=11708 11154 2658 554 8496 7102 2643 1743 1394 2824 900 314 257 690 674 1306 437 856 1072 538 266 245 167 240 313 362 180 704 1752 4278
cat_boundaries=0 1 2 3 4 5
cat_threshold=2048 525452 2482690 483840 525316
is_linear=0
shrinkage=0.05


Tree=10
num_leaves=31
num_cat=3
split_feature=6 6 5 0 0 4 6 0 6 0 0 8 0 0 6 0 6 1 3 8 1 6 1 6 6 0 0 6 8 6
split_gain=1267.93 190.913 152.021 50.1232 86.715 32.4176 30.7746 30.6834 28.7536 28.1496 22.2988 21.6341 19.022 18.1034 25.9405 17.9357 17.1572 14.0135 15.0549 13.4342 12.8177 11.7419 11.6955 11.1036 9.35051 8.75662 8.37458 7.71478 6.53334 6.47643
threshold=0.65476190476190488 0.19139194139194141 1.5000000000000002 4.5000000000000009 1.5000000000000002 1.5000000000000002 1.7976190476190479 3.5000000000000004 0.089572192513368995 4.5000000000000009 1.5000000000000002 0 1.5000000000000002 1.5000000000000002 1.1071428571428574 3.5000000000000004 0.69523809523809532 5.5000000000000009 6.5000000000000009 1 5.5000000000000009 2.6071428571428577 4.5000000000000009 0.46966911764705888 2.0307765151515156 1.0000000180025095e-35 2.5000000000000004 0.35912698412698418 2 2.5119047619047623
decision_type=2 2 2 2 2 2 2 2 2 2 2 1 2 2 2 2 2 2 2 1 2 2 2 2 2 2 2 2 1 2
left_child=1 8 5 4 11 7 -4 12 -1 10 -10 -3 -2 14 -7 26 -9 18 29 22 23 -20 -11 -5 -15 -23 28 -17 -6 -8
right_child=2 3 6 20 15 13 17 16 9 19 -12 -13 -14 24 -16 27 -18 -19 21 -21 -22 25 -24 -25 -26 -27 -28 -29 -30 -31
leaf_value=-0.021796326352627154 0.017990586905367707 0.012170948501893791 0.030641882529074179 0.011180629948231175 -0.0029010805981262394 0.027508234815189183 0.038539906122517842 0.077088858035810753 -0.0094063822894201524 0.025223794729519151 -0.020589969464052112 -0.0020146540537563356 -0.011441697089258724 0.0024605982975007263 0.077567056500954287 -0.0099695507213264506 0.02305477417043697 0.039591502532701058 0.087159681805809616 -0.006589649212578561 -0.0061292185908343238 0.047833266947642041 -0.012515285929340238 0.027968249464666924 0.032379764669006349 0.067254492145506314 -0.021410557320462667 0.0027855837450217044 -0.016120823714258114 0.054972011656232736
leaf_weight=1714.5083531737328 91.079249441623688 687.24712592363358 138.81090027093887 399.89008593559265 165.49527043104172 54.454263091087341 76.535638749599457 16.18946635723114 768.33884572982788 73.921554327011108 1061.497096657753 439.19865393638611 138.18790656328201 38.475824654102325 49.318177938461304 269.18418228626251 158.71676826477051 110.98905283212662 55.362606585025787 321.60197269916534 80.213703215122223 79.132942676544189 28.422980189323425 130.68796938657761 81.28087443113327 217.73655307292938 424.13685441017151 211.84254902601242 271.1401686668396 276.93792563676834
leaf_count=2924 88 840 123 496 254 48 39 18 1178 97 1774 607 204 46 25 431 161 47 27 458 109 26 42 127 75 76 699 292 437 111
internal_value=-0.000583956 -0.00966749 0.0398495 -0.000324847 -0.00349832 0.0207337 0.0524073 0.0122835 -0.0169165 -0.0132044 -0.015894 0.00673018 0.000250646 0.0360129 0.0512988 -0.0120852 0.0280562 0.0561067 0.0587041 -0.0015952 0.0124993 0.0660199 0.0134307 0.0153156 0.0227672 0.0620776 -0.0164066 -0.00435223 -0.0115459 0.0514141
internal_weight=8630.54 7047.33 1583.21 3079.04 2468.24 627.703 955.506 404.173 3968.29 2253.78 1829.84 1126.45 229.267 223.529 103.772 1341.8 174.906 816.695 705.706 423.947 610.792 352.232 102.345 530.578 119.757 296.869 860.772 481.027 436.635 353.474
internal_count=11879 10765 1114 4292 3560 665 449 471 6473 3549 2952 1447 292 194 73 2113 179 326 279 597 732 129 139 623 121 102 1390 723 691 150
cat_boundaries=0 1 2 3
cat_threshold=665100 98306 2622598
is_linear=0
shrinkage=0.05


Tree=11
num_leaves=31
num_cat=6
split_feature=8 8 0 0 0 0 8 5 8 1 7 0 0 7 7 3 0 8 1 0 7 7 1 0 0 0 1 8 7 0
split_gain=1121.32 227.831 64.3559 51.9167 40.5035 81.3495 40.4768 39.6416 36.7106 26.0691 28.9868 19.2831 18.0619 13.9058 13.0549 11.3495 10.9335 9.55626 9.47982 10.8936 9.31477 8.80569 8.10936 9.23149 10.9981 9.6502 7.55522 7.40558 7.26658 6.96266
threshold=0 1 4.5000000000000009 1.5000000000000002 1.5000000000000002 4.5000000000000009 2 1.5000000000000002 3 4.5000000000000009 3.5000000000000004 1.5000000000000002 3.5000000000000004 3.5000000000000004 22.500000000000004 6.5000000000000009 2.5000000000000004 4 1.5000000000000002 1.0000000180025095e-35 13.000000000000002 1.5000000000000002 5.5000000000000009 4.5000000000000009 1.5000000000000002 1.0000000180025095e-35 5.5000000000000009 5 1.5000000000000002 3.5000000000000004
decision_type=1 1 2 2 2 2 1 2 1 2 2 2 2 2 2 2 2 1 2 2 2 2 2 2 2 2 2 1 2 2
left_child=7 4 3 8 13 12 9 11 -3 10 -4 -1 16 17 22 27 -6 -2 -15 -20 -13 -10 23 24 25 -9 -17 -7 -8 -5
right_child=1 2 6 29 5 15 28 14 21 -11 -12 20 -14 18 -16 26 -18 -19 19 -21 -22 -23 -24 -25 -26 -27 -28 -29 -30 -31
leaf_value=0.055861727451555598 -0.0057024847060309159 -0.00083939411298283102 0.012408148955638222 -0.022155402126987397 -0.0062680293602454286 0.020906069999940019 -0.014586399301560655 0.041283934631688057 -0.018707172902689233 -0.010476035297360934 0.061591600446049159 0.027526505459733969 0.0016707021818761455 0.0091845434838675674 0.064730129914030418 0.031579737875914962 -0.020275601577353173 0.012608756451322051 0.016671037752582905 0.036608902554497058 0.0019360303356708388 -0.0094411077871996291 0.035213992950378442 0.058237965228722766 0.030773672779642582 0.059786203777204686 0.0050411223775260966 0.0023327847703453228 -0.0031565648647395813 -0.016609861574422131
leaf_weight=49.57182776927948 86.633758008480072 775.67711436748505 279.28899663686752 1664.2583885788918 282.84754705429077 94.914342999458313 361.22701531648636 138.39898860454559 686.03993302583694 111.47316658496857 33.556710541248322 132.74563509225845 324.52870053052902 101.42939406633377 154.08768576383591 171.07198303937912 274.5042325258255 345.20820999145508 131.32434207201004 143.2334371805191 48.57035893201828 409.40573173761368 96.597023189067841 249.19574022293091 91.721772432327271 143.59076607227325 31.804073631763458 131.6790212392807 226.09088468551636 857.72650510072708
leaf_count=24 123 1109 360 2858 427 95 596 57 1172 158 35 129 451 105 44 170 456 405 129 137 50 619 41 70 65 54 36 146 312 1446
internal_value=-0.000577965 -0.0075012 -0.0129454 -0.0155875 0.00637914 0.00098383 -0.00159958 0.0462337 -0.00927711 0.010049 0.0176837 0.0282268 -0.00770676 0.0152163 0.0515222 0.0188293 -0.013167 0.00909518 0.0222468 0.0270724 0.0206714 -0.0151062 0.0486936 0.0507839 0.0458135 0.0507054 0.0274194 0.0111382 -0.0100159 -0.0202694
internal_weight=8628.4 7523.92 5404.74 4393.11 2119.18 1311.35 1011.64 1104.48 1871.12 424.319 312.846 230.888 881.88 807.829 873.592 429.469 557.352 431.842 375.987 274.558 181.316 1095.45 719.504 622.907 373.712 281.99 202.876 226.593 587.318 2521.98
internal_count=11879 11345 8665 7204 2680 1781 1461 534 2900 553 395 203 1334 899 331 447 883 528 371 266 179 1791 287 246 176 111 206 241 908 4304
cat_boundaries=0 1 2 3 4 5 6
cat_threshold=2048 525452 123394 483840 128 525312
is_linear=0
shrinkage=0.05


Tree=12
num_leaves=31
num_cat=7
split_feature=8 8 0 0 8 0 0 8 1 7 0 0 0 1 0 4 0 7 4 8 0 3 0 0 7 1 7 0 8 8
split_gain=1025.38 219.8 63.0807 51.6739 38.5357 37.6348 76.5123 35.8156 24.3509 25.0789 21.3684 62.3966 17.5151 15.8712 19.295 15.0436 22.2308 23.6999 14.1856 12.8412 10.8241 10.123 8.88956 14.9779 8.74976 7.32757 7.10868 7.02806 7.60627 6.85343
threshold=0 1 4.5000000000000009 1.5000000000000002 2 1.5000000000000002 4.5000000000000009 3 4.5000000000000009 3.5000000000000004 4.5000000000000009 1.5000000000000002 3.5000000000000004 1.0000000180025095e-35 1.0000000180025095e-35 1.5000000000000002 1.0000000180025095e-35 4.5000000000000009 4.5000000000000009 4 2.5000000000000004 6.5000000000000009 3.5000000000000004 2.5000000000000004 1.5000000000000002 3.5000000000000004 1.5000000000000002 3.5000000000000004 5 6
decision_type=1 1 2 2 1 2 2 1 2 2 2 2 2 2 2 2 2 2 2 1 2 2 2 2 2 2 2 2 1 1
left_child=10 5 3 7 8 15 12 -3 9 -4 11 13 20 -1 -15 19 -17 -18 -16 -2 -7 29 23 -13 -9 -24 -6 -5 -29 -8
right_child=1 2 4 27 26 6 21 24 -10 -11 -12 22 -14 14 18 16 17 -19 -20 -21 -22 -23 25 -25 -26 -27 -28 28 -30 -31
leaf_value=0.025543481006520027 -0.0036553683927135257 -0.00081950524005779254 0.011948956245144634 -0.022095499664337569 -0.014435898129416196 -0.0061513214860977354 0.020048347654887576 -0.018591567172523325 -0.01032487990732853 0.056429408616440614 0.05355298592256378 0.02446376266597635 0.0016264655256149109 0.042156218369167227 0.053888973528448861 0.011219828343555354 0.026160755627547484 0.081010705157909216 0.080019301828254633 0.014295318043422945 -0.02018233059503809 0.026003869001604792 0.041163359094263857 -0.0061881363962124798 -0.0092951385223435639 0.017070991156181253 -0.0030880455786371141 -0.0073122843160619948 -0.019298286534439286 0.002273952518863199
leaf_weight=59.5560142993927 124.51905959844589 775.02628231048584 282.77604538202286 1627.7915719151497 355.99625492095947 281.08019471168518 96.919516563415527 673.32536822557449 110.31146651506424 35.688498139381409 357.22372889518738 112.59198892116547 325.07134503126144 210.49336725473404 146.09066718816757 101.25081199407578 54.912705421447754 30.70673531293869 80.592422246932983 508.8117288351059 268.99454075098038 208.52540755271912 74.25072193145752 61.691543281078339 405.5586838722229 54.892265319824219 225.37834000587463 221.10675895214081 622.49068772792816 131.98655927181244
leaf_count=24 167 1109 360 2858 596 427 95 1172 158 35 96 88 451 77 52 100 56 23 24 553 456 206 53 79 619 41 312 365 1081 146
internal_value=-0.000570115 -0.00737215 -0.0127913 -0.0154426 -0.00156541 0.00618107 0.000959687 -0.00913271 0.00969471 0.0169336 0.0430133 0.0388456 -0.007575 0.0497582 0.0530569 0.0146123 0.0270784 0.0458323 0.0631791 0.010934 -0.0130127 0.0180346 0.0209808 0.0136138 -0.0149583 0.0309229 -0.00986702 -0.020176 -0.0164722 0.0107749
internal_weight=8625.61 7468.23 5335.45 4325.3 1010.15 2132.78 1312.58 1853.91 428.776 318.465 1157.38 800.159 875.146 496.732 437.176 820.201 186.87 85.6194 226.683 633.331 550.075 437.431 303.427 174.284 1078.88 129.143 581.375 2471.39 843.597 228.906
internal_count=11879 11345 8665 7204 1461 2680 1781 2900 553 395 534 438 1334 177 153 899 179 79 76 720 883 447 261 167 1791 94 908 4304 1446 241
cat_boundaries=0 1 2 3 4 5 6 7
cat_threshold=2048 525452 123394 483840 128 221184 525312
is_linear=0
shrinkage=0.05


Tree=13
num_leaves=31
num_cat=9
split_feature=8 7 0 0 7 0 0 5 8 8 0 0 2 8 3 7 0 4 0 7 8 8 7 8 7 4 8 8 2 0
split_gain=940.562 213.398 53.2893 99.9655 44.2715 27.4324 33.472 27.3366 21.2426 20.6119 20.3374 14.3254 14.0891 13.8793 11.7254 25.1053 10.9485 10.6011 23.2172 16.2772 10.5766 10.1156 9.77225 8.79893 8.24431 6.74993 6.56933 6.31522 5.39441 5.1672
threshold=0 2.5000000000000004 4.5000000000000009 1.5000000000000002 1.5000000000000002 4.5000000000000009 1.5000000000000002 1.5000000000000002 1 2 3.5000000000000004 1.5000000000000002 1.0000000180025095e-35 3 11.500000000000002 4.5000000000000009 4.5000000000000009 1.5000000000000002 1.0000000180025095e-35 4.5000000000000009 4 5 22.500000000000004 6 13.000000000000002 1.5000000000000002 7 8 1.0000000180025095e-35 4.5000000000000009
decision_type=1 2 2 2 2 2 2 2 1 1 2 2 2 1 2 2 2 2 2 2 1 1 2 1 2 2 1 1 2 2
left_child=7 4 3 8 16 6 13 11 17 12 25 -1 14 -6 -4 -16 26 -3 -19 -20 -7 28 29 -12 -13 -5 -2 -8 -18 -9
right_child=1 2 9 10 5 20 27 22 -10 -11 23 24 -14 -15 15 -17 21 18 19 -21 -22 -23 -24 -25 -26 -27 -28 -29 -30 -31
leaf_value=0.047965480402748395 -0.013182019886375003 0.012663445681977543 0.024034658773143557 -0.017387906085297992 0.007422456679034602 0.016776802911251661 -0.0014519001474344296 0.038598242925838577 -0.00075935340608602033 0.0034996739511125052 0.0059280998418316929 0.025194270869748653 0.0099585465314617778 -0.0073923904707315956 0.028836952200979551 0.087342746483626998 0.017151183964902918 0.0098223071484425523 0.028143354376224457 0.072774644586109008 -0.0015103799484856928 -0.013830706922232131 0.055025655279291978 -0.0087374840546929379 0.0014310341964284112 -0.0011536102069495771 -0.021339559447432394 -0.018237661809972727 -0.017881608069948859 0.046833771903777632
leaf_weight=54.94902092218399 457.77521103620529 572.11120665073395 172.92921459674835 591.28981757164001 205.43943113088608 90.905777335166931 73.340985298156738 474.55750453472137 266.20760333538055 187.61744725704193 201.27598702907562 138.93460029363632 106.35908997058868 600.67667692899704 60.559512734413147 26.298895359039307 46.450194239616394 98.119645953178406 52.857495725154877 33.29784631729126 363.01494485139847 385.35114467144012 172.81339585781097 188.75317800045013 49.504385650157928 71.803715169429779 1594.2305592298508 953.08777922391891 14.393341064453123 318.15564775466919
leaf_count=24 780 630 166 994 272 113 116 204 361 224 267 129 111 908 55 19 67 95 53 23 488 642 44 295 50 108 2870 1665 23 83
internal_value=-0.000562941 -0.00724498 0.00418787 0.000511382 -0.0135432 -0.00851588 -0.0112416 0.0401452 0.0116466 0.0179687 -0.010301 0.0255019 0.024615 -0.00361644 0.031563 0.0465513 -0.0181445 0.0158138 0.0264528 0.0453927 0.00248828 -0.011046 0.0442522 -0.00124129 0.0189515 -0.01563 -0.019688 -0.0172301 0.00761255 0.0419036
internal_weight=8623.06 7414.15 2629.48 2075.72 4784.67 2286.47 1832.54 1208.91 1022.59 553.764 1053.12 243.388 366.147 806.116 259.788 86.8584 2498.2 756.386 184.275 86.1553 453.921 446.195 965.527 390.029 188.439 663.094 2052.01 1026.43 60.8435 792.713
internal_count=11879 11345 3401 2826 7944 3562 2961 534 1162 575 1664 203 351 1180 240 74 4382 801 171 76 601 732 331 562 179 1102 3650 1781 90 287
cat_boundaries=0 1 2 3 4 5 6 7 8 9
cat_threshold=2048 534156 574478 591372 627712 360448 525444 2843276 12
is_linear=0
shrinkage=0.05


Tree=14
num_leaves=31
num_cat=9
split_feature=8 7 0 0 7 0 0 5 0 8 8 1 8 3 7 0 0 8 8 1 8 0 7 7 7 8 1 8 0 1
split_gain=865.414 206.35 49.5153 94.8751 43.8586 26.5829 32.8917 23.2267 19.8755 19.656 18.6613 15.1462 13.2662 12.7259 14.3815 12.3883 10.9325 9.94191 9.78168 8.6607 8.42091 8.3055 11.1045 7.48489 7.39076 6.63879 6.27089 6.23612 5.60065 5.08943
threshold=0 2.5000000000000004 4.5000000000000009 1.5000000000000002 1.5000000000000002 4.5000000000000009 1.5000000000000002 1.5000000000000002 3.5000000000000004 1 2 5.5000000000000009 3 11.500000000000002 4.5000000000000009 1.5000000000000002 4.5000000000000009 4 5 5.5000000000000009 6 1.0000000180025095e-35 22.500000000000004 13.000000000000002 6.5000000000000009 7 1.0000000180025095e-35 8 2.5000000000000004 4.5000000000000009
decision_type=1 2 2 2 2 2 2 2 2 1 1 2 1 2 2 2 2 1 1 2 1 2 2 2 2 1 2 1 2 2
left_child=7 4 3 9 16 6 12 15 28 24 11 13 -6 -4 -15 -1 25 -7 29 21 -10 -9 -23 -17 -3 -2 -11 -8 -5 -18
right_child=1 2 10 8 5 17 27 19 20 26 -12 -13 -14 14 -16 23 18 -19 -20 -21 -22 22 -24 -25 -26 -27 -28 -29 -30 -31
leaf_value=0.044556260779339267 -0.013030816169281149 0.014189929233310979 0.020685512585334607 -0.010987164832564629 0.0071949485411459436 0.016152177065147374 -0.0014220147366657415 0.034155405137441468 0.0057548626566554439 -0.01873980381405442 0.0034056968077942245 -0.0013021222625151281 -0.0072651466334274122 0.029350241862302135 0.067406163623965093 0.023949708209420443 0.01643730857765258 -0.0014760793453104111 -0.013681458806428563 0.029322054271265774 -0.008603430703192921 0.042820555960358664 0.059908786247378443 0.001393481892326999 0.035737221314184497 -0.0212647693295199 0.0025100223937379418 -0.01811762632096612 -0.020253496199880039 -0.017756255534452547
leaf_weight=57.648910522460938 451.78040426969528 726.56548702716827 209.82196187973022 335.93167734146118 206.96996629238129 92.44375091791153 73.234579086303711 201.74733412265778 202.47271180152893 41.054537177085876 188.27519792318344 51.004918098449707 596.25261574983597 78.442943453788757 36.320099353790283 142.47942262887955 47.253741264343262 362.46706885099411 380.05815488100052 132.03741067647934 187.11113458871841 560.97709363698959 114.4704155921936 49.575279414653778 42.102491915225983 1560.5708160400391 224.95099830627441 935.86323255300522 316.8866463303566 14.138252496719359
leaf_count=24 780 767 199 541 272 113 116 67 267 56 224 56 908 71 25 129 67 488 642 47 295 189 28 50 34 2870 305 1665 561 23
internal_value=-0.000556883 -0.00712053 0.00406195 0.0004948 -0.0133911 -0.00837748 -0.01109 0.0375839 -0.0101516 0.0112208 0.0172021 0.0234041 -0.00354002 0.0280074 0.0413941 0.0242289 -0.0180235 0.00242882 -0.0108979 0.0412606 -0.00121432 0.0430576 0.0457166 0.0181272 0.0151728 -0.0195866 -0.000741731 -0.0170996 -0.0154852 0.00736332
internal_weight=8620.91 7361.97 2640.94 2077.08 4721.03 2267.23 1812.32 1258.94 1042.4 1034.67 563.865 375.59 803.223 324.585 114.763 249.704 2453.8 454.911 441.45 1009.23 389.584 877.195 675.448 192.055 768.668 2012.35 266.006 1009.1 652.818 61.392
internal_count=11879 11345 3401 2826 7944 3562 2961 534 1664 1162 575 351 1180 295 96 203 4382 601 732 331 562 284 217 179 801 3650 361 1781 1102 90
cat_boundaries=0 1 2 3 4 5 6 7 8 9
cat_threshold=2048 534156 574478 591372 627712 360448 525444 2843276 12
is_linear=0
shrinkage=0.05


Tree=15
num_leaves=31
num_cat=3
split_feature=6 6 5 4 6 6 6 5 7 4 7 6 4 5 5 4 8 7 1 6 7 1 1 4 5 8 7 6 8 6
split_gain=917.692 138.321 112.116 50.9918 33.6192 29.2355 13.9754 12.3612 16.1246 14.137 10.3519 8.4321 11.9477 7.54777 7.26855 9.12458 6.47864 5.65153 5.46599 5.15398 7.75402 4.92328 9.12051 8.83198 5.29565 4.62234 7.83585 5.65007 4.18526 4.36916
threshold=0.54304029304029322 0.16441441441441443 1.5000000000000002 5.5000000000000009 0.27951388888888895 0.8928571428571429 0.053342816500711245 1.0000000180025095e-35 10.500000000000002 1.5000000000000002 11.500000000000002 3.0833333333333339 3.5000000000000004 1.0000000180025095e-35 1.0000000180025095e-35 1.0000000180025095e-35 0 7.5000000000000009 2.5000000000000004 0.91666666666666685 5.5000000000000009 1.5000000000000002 1.0000000180025095e-35 4.5000000000000009 4.5000000000000009 1 3.5000000000000004 0.25595238095238099 2 0.30495169082125612
decision_type=2 2 2 2 2 2 2 2 2 2 2 2 2 2 2 2 1 2 2 2 2 2 2 2 2 1 2 2 1 2
left_child=1 6 3 7 13 -4 -1 9 -9 10 19 21 -13 25 15 28 -15 18 -11 20 -2 22 -7 24 -23 -3 -27 -28 29 -6
right_child=2 4 5 -5 14 11 -8 8 -10 17 -12 12 -14 16 -16 -17 -18 -19 -20 -21 -22 23 -24 -25 -26 26 27 -29 -30 -31
leaf_value=-0.022239582473171038 0.0067111228545385137 -0.012609473388682719 0.01760567415581267 0.066792381311318511 -0.018655513779784687 0.031741200116610982 -0.0150170627742739 0.015659335250215529 0.045276404460654479 -5.3759216444767421e-05 -0.015920079320504297 0.03942172592684804 0.058641283725941865 -0.007666035557759722 0.0068548147778598086 0.0067677207967783417 0.0056584962254166912 0.034255294604720848 0.022790467855415372 0.017792295536335517 -0.018810175657746942 0.033334269705061842 0.053995813037879217 0.023879760092770305 0.044557345343108075 -0.0076520375768557441 0.035967295398241853 -0.006590702505747361 0.00032189444466307338 -0.0044676543269513572
leaf_weight=1139.1354660391808 285.34842330217361 636.35247427225113 155.53221219778061 45.840695679187775 64.790428578853607 78.662954926490784 1625.5270082950592 264.27191472053528 55.630308151245117 40.362445592880249 56.121849775314331 194.54952836036682 138.37215805053711 173.43241333961487 519.18818521499634 337.05746501684189 171.98425781726837 55.005910396575928 74.548926413059235 86.810523390769958 33.227616667747498 211.47270333766937 111.0052809715271 127.28647196292877 208.97403562068939 858.69502514600754 18.093128681182861 13.70722019672394 473.01123249530792 333.96178859472275
leaf_count=2139 368 1047 141 26 104 33 2857 250 38 44 69 51 37 248 631 450 245 46 69 93 40 93 34 48 57 1385 27 20 686 487
internal_value=7.76973e-05 -0.00958167 0.0277343 0.0152843 -0.00312258 0.0378617 -0.017993 0.0128023 0.0208097 0.00874555 0.00420596 0.0408051 0.0474099 -0.00776437 0.00190671 -0.000218506 -0.00108982 0.0210754 0.0147665 0.00699221 0.00404924 0.0378232 0.0447659 0.035419 0.0389125 -0.00927434 -0.00667449 0.0176231 -0.00291965 -0.00660724
internal_weight=8587.96 6364.94 2223.02 997.169 3600.27 1225.86 2764.66 951.328 319.902 631.426 461.508 1070.32 332.922 1872.26 1728.01 1208.82 345.417 169.917 114.911 405.387 318.576 737.401 189.668 547.733 420.447 1526.85 890.495 31.8003 871.763 398.752
internal_count=11863 10326 1537 1043 5330 494 4996 1017 288 729 570 353 88 2972 2358 1727 493 159 113 501 408 265 67 198 150 2479 1432 47 1277 591
cat_boundaries=0 1 2 3
cat_threshold=352418 2330689 927488
is_linear=0
shrinkage=0.05


Tree=16
num_leaves=31
num_cat=0
split_feature=6 6 5 0 0 4 6 0 0 0 1 6 6 0 6 0 7 1 1 6 7 6 4 0 6 1 6 5 7 0
split_gain=856.383 135.676 98.161 63.9524 78.7097 43.9749 25.315 21.7943 37.7157 17.7485 15.4139 15.0124 14.0533 13.9517 12.9909 11.6128 8.40031 8.99667 6.69174 6.54945 8.19327 6.47071 6.4117 6.30933 6.44898 6.29363 6.08851 6.08271 8.08057 5.47009
threshold=0.54304029304029322 0.16441441441441443 1.5000000000000002 4.5000000000000009 1.5000000000000002 5.5000000000000009 1.9738095238095241 4.5000000000000009 1.5000000000000002 3.5000000000000004 5.5000000000000009 0.27951388888888895 0.053342816500711245 4.5000000000000009 1.7543103448275865 1.5000000000000002 6.5000000000000009 2.5000000000000004 5.5000000000000009 2.4642857142857149 5.5000000000000009 0.35912698412698418 1.0000000180025095e-35 3.5000000000000004 0.76984126984126988 3.5000000000000004 0.46049896049896061 2.5000000000000004 10.500000000000002 1.0000000180025095e-35
decision_type=2 2 2 2 2 2 2 2 2 2 2 2 2 2 2 2 2 2 2 2 2 2 2 2 2 2 2 2 2 2
left_child=1 12 5 4 11 7 -4 8 19 -6 26 -3 -1 15 23 -14 17 -9 -13 20 22 -11 -2 -10 -25 -24 -5 28 -8 -22
right_child=2 3 6 10 9 -7 27 16 14 21 -12 18 13 -15 -16 -17 -18 -19 -20 -21 29 -23 25 24 -26 -27 -28 -29 -30 -31
leaf_value=-0.022181343320362305 0.036463251794825645 -0.0028408396959700988 0.020984442906975556 0.010769783025867646 -0.01813336319905404 0.060872651894480427 0.041924990404106854 0.038475108478529745 -0.010816989616528605 -0.010327749891185279 -0.0096093265164253917 0.0058163045485441593 -0.011655442290294037 -0.005142176742879933 0.011314623546410225 -0.021198697283412431 0.05245184718560874 0.01063198735852703 0.020288033180150388 0.045196313809491628 -0.012352532408821072 0.0017938694512477497 0.0090108284066147074 -0.0052408397095981031 0.019960660766253621 0.028948353695359547 0.025267197022897543 0.040649748306119893 0.020054455550982762 0.017411000292209596
leaf_weight=1114.08123087883 75.049944341182709 652.61607283353806 242.2855606675148 575.85809224843979 993.14475518465042 49.007072627544403 79.395687103271484 54.498603820800781 206.96138656139374 386.16653710603714 88.699437737464905 562.88723492622375 557.92460417747498 299.68880504369736 174.3033252954483 743.6853289604187 32.349430680274963 62.039545714855194 93.090679943561554 28.560992002487183 28.052214980125427 154.00139951705933 81.264551162719727 68.918249368667603 40.187608480453491 77.169649600982666 82.840181052684784 861.34468233585358 90.233160972595215 34.327435553073883
leaf_count=2139 69 971 193 698 1782 26 38 43 335 673 129 682 977 474 164 1406 20 53 108 10 24 214 74 90 48 61 73 223 40 26
internal_value=6.99464e-05 -0.00943595 0.0262874 -0.00305624 -0.00647891 0.0146695 0.0355277 0.0123199 0.00910564 -0.0141661 0.0099581 0.00252834 -0.0178689 -0.0148686 0.00035577 -0.0171081 0.02991 0.0236527 0.00787001 0.0223311 0.0201239 -0.00687189 0.0244246 -0.00568777 0.00404178 0.0187219 0.012593 0.0389454 0.0302911 0.0040263
internal_weight=8590.63 6304.68 2285.95 3589.3 2841.91 1012.69 1273.26 963.683 814.795 1533.31 747.398 1308.59 2715.38 1601.3 490.371 1301.61 148.888 116.538 655.978 324.425 295.864 540.168 233.484 316.067 109.106 158.434 658.698 1030.97 169.629 62.3797
internal_count=11863 10326 1537 5330 4430 1043 494 1017 901 2669 900 1761 4996 2857 637 2383 116 96 790 264 254 887 204 473 138 135 771 301 78 50
is_linear=0
shrinkage=0.05


Tree=17
num_leaves=31
num_cat=0
split_feature=6 6 5 0 0 4 6 0 0 0 1 6 6 0 6 0 1 7 1 6 1 0 6 1 0 6 6 7 4 1
split_gain=800.248 133.038 86.3795 60.7883 76.2389 38.2072 22.36 19.6597 34.7109 17.5603 14.4693 14.1659 14.1263 13.7758 12.2805 11.6156 7.31292 7.16341 7.94083 6.9586 9.65388 8.4192 6.25028 6.14605 6.07484 6.01665 5.69284 7.41626 5.62 5.64784
threshold=0.54304029304029322 0.16441441441441443 1.5000000000000002 4.5000000000000009 1.5000000000000002 5.5000000000000009 0.8928571428571429 4.5000000000000009 1.5000000000000002 3.5000000000000004 5.5000000000000009 0.27951388888888895 0.053342816500711245 4.5000000000000009 1.7543103448275865 1.5000000000000002 5.5000000000000009 6.5000000000000009 2.5000000000000004 3.0833333333333339 2.5000000000000004 1.5000000000000002 0.35912698412698418 5.5000000000000009 3.5000000000000004 0.76984126984126988 2.4642857142857149 5.5000000000000009 1.0000000180025095e-35 3.5000000000000004
decision_type=2 2 2 2 2 2 2 2 2 2 2 2 2 2 2 2 2 2 2 2 2 2 2 2 2 2 2 2 2 2
left_child=1 12 5 4 11 7 -4 8 26 -6 -5 -3 -1 15 24 -14 19 18 -9 -8 -21 -22 -11 -13 -10 -26 27 28 -2 -30
right_child=2 3 6 10 9 -7 16 17 14 22 -12 23 13 -15 -16 -17 -18 -19 -20 20 21 -23 -24 -25 25 -27 -28 -29 29 -31
leaf_value=-0.022121952331756761 0.034268582500114796 -0.0027782850176763332 0.015999299195768032 0.012124294416180119 -0.018010836286408812 0.055811356103640512 0.034518629675128622 0.036085726655297128 -0.010664596083507026 -0.010177205866682066 -0.0094623683226890565 0.0056385778777200387 -0.011500997373414175 -0.0050406815849401492 0.010907973945342672 -0.021120912647914412 0.025366708251745741 0.048502782614921684 0.010256961001291998 0.033367636883719763 0.06213908064103716 0.040807282259497431 0.0017461540613515143 0.019381915031626843 -0.0051379102700429558 0.019075487478869915 0.042101871414276473 0.003907204159895857 0.008707270944474009 0.027413897260168404
leaf_weight=1089.6414519846439 77.837013900279999 650.76472705602646 161.65153235197067 667.05346500873566 975.2980055809021 52.082931935787201 689.1567108631134 56.636303663253784 204.73475378751755 382.19882607460022 87.851177930831909 566.17069894075394 551.45949447154999 298.15171068906784 176.28670078516006 728.08609187602997 145.42999231815338 34.091506242752075 62.702668249607086 137.46436214447021 87.388116598129272 98.268422722816467 154.27790623903275 94.998594760894775 68.558004677295685 40.997839450836182 29.88145899772644 62.638175070285797 82.000121414661407 79.436232209205627
leaf_count=2139 69 971 141 771 1782 26 224 43 335 673 129 682 977 474 164 1406 51 20 53 34 18 26 214 108 90 48 10 50 74 61
internal_value=6.25242e-05 -0.0092912 0.0249525 -0.0029912 -0.00636065 0.0140856 0.0334187 0.0118586 0.00879306 -0.0140142 0.00961217 0.00245869 -0.0177436 -0.0147196 0.000345157 -0.0169749 0.035851 0.0282893 0.0225149 0.0373572 0.0434114 0.0508481 -0.00674833 0.00761326 -0.00557956 0.00392319 0.0212838 0.0192234 0.0232329 0.017912
internal_weight=8593.19 6245.95 2347.24 3578.61 2823.71 1027.88 1319.36 975.801 822.37 1511.77 754.905 1311.93 2667.34 1577.7 490.577 1279.55 1157.71 153.43 119.339 1012.28 323.121 185.657 536.477 661.169 314.291 109.556 331.793 301.912 239.273 161.436
internal_count=11863 10326 1537 5330 4430 1043 494 1017 901 2669 900 1761 4996 2857 637 2383 353 116 96 302 78 44 887 790 473 138 264 254 204 135
is_linear=0
shrinkage=0.05


Tree=18
num_leaves=31
num_cat=3
split_feature=6 6 6 4 6 6 4 7 4 4 6 8 7 1 6 1 4 7 7 6 7 1 8 8 6 6 1 3 1 3
split_gain=748.723 130.409 73.3588 34.9115 30.6979 14.1949 10.6927 5.92272 15.1441 5.41565 6.89216 5.11946 7.9929 5.55817 7.6579 7.19583 4.6386 4.46216 4.35338 14.9098 4.31763 4.02349 3.93539 3.63765 3.73026 3.29126 3.58737 3.07531 2.85696 2.7168
threshold=0.54304029304029322 0.16441441441441443 1.9738095238095241 4.5000000000000009 0.27951388888888895 0.053342816500711245 1.0000000180025095e-35 22.500000000000004 3.5000000000000004 2.5000000000000004 3.0595238095238098 0 6.5000000000000009 1.0000000180025095e-35 0.9642857142857143 4.5000000000000009 1.0000000180025095e-35 4.5000000000000009 6.5000000000000009 0.76984126984126988 5.5000000000000009 3.5000000000000004 1 2 0.49242424242424249 0.32916666666666672 1.5000000000000002 1.5000000000000002 1.5000000000000002 11.500000000000002
decision_type=2 2 2 2 2 2 2 2 2 2 2 1 2 2 2 2 2 2 2 2 2 2 1 1 2 2 2 2 2 2
left_child=1 5 3 11 21 -1 27 9 -9 -8 -11 12 -2 17 18 -16 25 29 20 -20 28 -3 -23 24 -18 -6 -27 -4 -15 -13
right_child=2 4 6 -5 16 -7 7 8 -10 10 -12 13 -14 14 15 -17 23 -19 19 -21 -22 22 -24 -25 -26 26 -28 -29 -30 -31
leaf_value=-0.022061394798336284 0.016354115671632388 -0.0054325163433328483 0.012700898958064836 0.071437213990273821 -0.003834170905576033 -0.014569890267462506 0.035767450392774423 0.025974952357890303 0.052882981851462812 0.024849197871214566 0.038859805649805478 0.018051204938960751 -0.010850467239677163 0.020840934125477655 0.046187182479947152 0.014351965646929541 -0.001816610520727544 -0.0067871458426750353 0.060804479186788642 0.0065891315079691874 -0.0092052429312961658 -0.00053458667118574975 -0.011506685078168452 0.0098679269458657112 0.014436886663322088 -0.0029479809332266255 0.0039758476575702095 0.025241225022015132 0.011628219400411114 -0.0021235780799796788
leaf_weight=1065.8011169135571 48.563278794288635 1062.0336470603943 66.613084614276886 25.450187563896179 357.22630751132965 1554.6756136715412 419.98975908756256 94.480344474315643 117.09866058826447 383.46597009897232 113.83428728580475 53.637471854686737 60.806372761726379 100.72213572263718 36.611236989498138 34.455272793769836 191.19914942979813 55.425861179828644 20.435869097709656 33.419910371303558 22.401401579380035 105.18129962682724 669.16968822479248 259.4250476360321 43.294286012649536 269.63682425022125 611.00263756513596 183.74096202850342 511.55476421117783 24.223006069660187
leaf_count=2139 53 1701 37 17 537 2857 150 25 25 144 38 59 59 106 26 25 256 53 22 33 23 172 1099 324 48 369 824 80 536 26
internal_value=5.56306e-05 -0.00914732 0.0237181 0.0136058 -0.00292728 -0.0176168 0.031253 0.0333263 0.0408672 0.0315869 0.0280563 0.0121373 0.00112618 0.0133242 0.0151259 0.0307525 0.00184842 0.00405592 0.0135131 0.0271614 0.0123549 -0.00743095 -0.0101718 0.00594504 0.00113582 0.000213838 0.00185589 0.0219046 0.0131437 0.0117747
internal_weight=8595.58 6188.65 2406.93 1027.71 3568.17 2620.48 1379.22 1128.87 211.579 917.29 497.3 1002.26 109.37 892.887 759.601 71.0665 1731.78 133.286 688.534 53.8558 634.678 1836.38 774.351 493.918 234.493 1237.87 880.639 250.354 612.277 77.8605
internal_count=11863 10326 1537 1038 5330 4996 499 382 50 332 182 1021 112 909 771 51 2358 138 720 55 665 2972 1271 628 304 1730 1193 117 642 85
cat_boundaries=0 1 2 3
cat_threshold=136 655656 934528
is_linear=0
shrinkage=0.05


Tree=19
num_leaves=31
num_cat=0
split_feature=6 6 6 0 0 4 0 0 0 6 0 1 6 0 7 0 0 0 6 6 6 1 0 6 6 3 6 0 4 7
split_gain=701.337 127.8 65.0563 57.9302 73.8914 30.034 17.4285 14.2668 37.4114 14.2597 13.7965 13.5749 12.6983 11.7847 11.1999 11.1842 39.9757 7.14746 6.94589 5.96061 5.89306 5.57568 5.55318 5.44388 5.2339 12.032 5.18211 5.13895 4.93243 4.77941
threshold=0.54304029304029322 0.16441441441441443 1.9738095238095241 4.5000000000000009 1.5000000000000002 4.5000000000000009 3.5000000000000004 1.5000000000000002 3.5000000000000004 0.053342816500711245 4.5000000000000009 5.5000000000000009 0.27951388888888895 1.5000000000000002 20.500000000000004 4.5000000000000009 1.5000000000000002 4.5000000000000009 0.76984126984126988 0.9642857142857143 0.35912698412698418 5.5000000000000009 2.5000000000000004 0.46049896049896061 0.69523809523809532 6.5000000000000009 0.46049896049896061 1.0000000180025095e-35 2.5000000000000004 4.5000000000000009
decision_type=2 2 2 2 2 2 2 2 2 2 2 2 2 2 2 2 2 2 2 2 2 2 2 2 2 2 2 2 2 2
left_child=1 9 5 4 12 7 23 14 22 -1 13 26 -3 -11 19 16 -4 18 -10 27 -8 -14 -9 -6 25 -19 -5 28 -2 -26
right_child=2 3 15 11 6 -7 20 8 17 10 -12 -13 21 -15 -16 -17 -18 24 -20 -21 -22 -23 -24 -25 29 -27 -28 -29 -30 -31
leaf_value=-0.021999652631471356 0.015853827120300392 -0.0025507405692285546 0.034102185506451214 0.010091183023475831 -0.019155005955892552 0.064800098577477191 -0.0099434523308151047 -0.0023380133739881129 -0.002338073022749021 -0.011148947942735561 -0.0046487862310336057 -0.0092505838658829952 0.0054027953758506147 -0.020986168090251469 -0.01218941906014338 0.035821632137044195 0.012759846159582545 0.015719953775032075 0.020604560913770636 0.037714581715968094 0.0016450262204616662 0.018354670004425141 -0.018478958665125372 -0.0068236632223819789 0.027337531253513445 0.049594835928361863 0.023207056804197445 0.024198565148932649 -0.0077047592867796021 0.0070390846453757365
leaf_weight=1042.5455393493176 143.79437983036041 644.11805909872055 608.33391284942627 587.04859232902527 854.73711907863617 27.334792256355286 376.19712501764297 111.15432912111282 80.031328678131104 537.2682466506958 292.36174118518829 86.656885147094727 570.58631283044815 702.5583763718605 27.690210819244385 471.5511429309845 343.18448865413666 64.119607329368591 56.125583946704865 45.568031311035156 154.86722379922867 97.258390009403229 102.35725802183151 99.968888103961945 46.006275415420532 44.340475916862488 86.392958700656891 188.66835242509842 26.278130650520325 78.447739720344543
leaf_count=2139 124 971 160 698 1610 17 673 164 103 977 474 129 682 1406 24 93 246 52 60 23 214 108 180 172 34 33 73 154 22 48
internal_value=4.99112e-05 -0.00900391 0.0225747 -0.00286364 -0.00618917 0.0130816 -0.0138249 0.0116882 0.00658259 -0.0174887 -0.0144193 0.00937683 0.00245809 -0.0167233 0.0185736 0.0295251 0.0264046 0.0162197 0.00711917 0.0206805 -0.00656406 0.00728898 -0.010076 -0.0178638 0.0215398 0.0295686 0.0117738 0.0185168 0.0122138 0.0145427
internal_weight=8597.55 6132.57 2464.99 3557.83 2797.73 1041.92 1485.77 1014.58 582.583 2574.73 1532.19 760.098 1311.96 1239.83 431.999 1423.07 951.518 369.071 136.157 404.309 531.064 667.845 213.512 954.706 232.914 108.46 673.442 358.741 170.073 124.454
internal_count=11863 10326 1537 5330 4430 1038 2669 1021 674 4996 2857 900 1761 2383 347 499 406 330 163 323 887 790 344 1782 167 85 771 300 146 82
is_linear=0
shrinkage=0.05


Tree=20
num_leaves=31
num_cat=2
split_feature=6 8 6 5 4 5 6 5 4 4 6 6 6 4 6 5 8 6 6 1 1 4 6 6 5 6 6 5 6 1
split_gain=685.342 97.7656 91.9488 15.3672 15.2135 16.6078 14.4339 11.1071 14.3903 8.92908 8.68702 7.90262 7.23749 6.55961 13.3159 12.0099 6.37301 5.84911 5.07092 4.415 4.67736 5.52146 4.15834 6.42541 4.0521 4.02831 13.8313 3.8411 7.88311 7.43334
threshold=0.44590643274853808 0 0.16441441441441443 1.0000000180025095e-35 8.5000000000000018 2.5000000000000004 0.059714795008912663 1.0000000180025095e-35 1.5000000000000002 2.5000000000000004 0.23669467787114848 3.3928571428571432 0.75000000000000011 3.5000000000000004 2.6785714285714293 1.0000000180025095e-35 1 2.702380952380953 0.91666666666666685 2.5000000000000004 1.0000000180025095e-35 1.0000000180025095e-35 3.7976190476190479 3.1785714285714293 1.0000000180025095e-35 2.6071428571428577 2.4404761904761911 2.5000000000000004 0.84523809523809534 2.5000000000000004
decision_type=2 1 2 2 2 2 2 2 2 2 2 2 2 2 2 2 1 2 2 2 2 2 2 2 2 2 2 2 2 2
left_child=2 4 6 10 5 11 -1 8 18 -10 -4 13 -9 15 -15 -2 -5 -17 -3 20 -18 -22 23 25 -8 26 -7 28 29 -14
right_child=1 7 3 16 -6 22 24 12 9 -11 -12 -13 27 14 -16 17 19 -19 -20 -21 21 -23 -24 -25 -26 -27 -28 -29 -30 -31
leaf_value=-0.022228687096777326 0.0057408318698145095 0.0016777094789623929 -0.010068821577439871 -0.0040812837080303225 0.048390329866247105 0.023346416874299742 -0.015404409109401763 0.010865514255727092 0.029890996078278803 0.0040498357326028793 -0.0038726211823261903 -0.0009768956164355933 0.01572716690906454 0.050378152859347616 0.018494561400645003 0.017090328494405959 -0.0018384875373848844 0.033809976235948336 0.020939584343533345 0.0012519976544452475 0.021228201527615134 -0.004144783651561749 0.022697838840755314 0.044040853824669102 -0.0068955299008218235 0.027860163819204926 0.049770475699641221 0.034242639051093045 0.0078980731230959035 0.047426267758584634
leaf_weight=1019.0042508542538 134.11799114942551 654.54470533132553 1012.8421896398067 262.23335611820221 83.311032176017761 101.71106600761414 1347.5006755292416 480.46241700649261 88.632617175579071 53.672030985355377 1281.216590821743 44.020783424377441 40.684051632881165 51.856586694717407 88.865649580955505 112.11940735578537 47.84527176618576 98.057202875614166 36.05072021484375 230.05021089315414 110.73123067617416 26.589982390403748 151.49250316619873 93.654550552368164 156.13033080101013 531.41589331626892 96.515081167221069 49.092711448669434 85.5553839802742 33.90743762254715
leaf_count=2137 132 839 1719 365 21 33 2576 462 95 52 1988 32 35 23 37 60 65 52 40 312 143 34 27 18 271 124 23 32 70 29
internal_value=2.54357e-06 0.0187596 -0.0106141 -0.00465433 0.0274194 0.0264399 -0.0176344 0.00949034 0.00566659 0.0201447 -0.00660828 0.0193075 0.0142456 0.0211485 0.0302438 0.0174311 0.00196238 0.0248908 0.00268323 0.00573937 0.0116244 0.0163151 0.0303109 0.0317117 -0.0145209 0.0301292 0.0362121 0.022007 0.0182562 0.0301368
internal_weight=8603.88 3109.74 5494.14 2971.51 1587.14 1503.83 2522.64 1522.6 832.9 142.305 2294.06 529.038 689.702 485.017 140.722 344.295 677.45 210.177 690.595 415.217 185.166 137.321 974.789 823.297 1503.63 729.642 198.226 209.24 160.147 74.5915
internal_count=11846 2236 9610 4626 582 561 4984 1654 1026 147 3707 336 628 304 60 244 919 112 879 554 242 177 225 198 2847 180 56 166 134 64
cat_boundaries=0 1 2
cat_threshold=2176 2171014
is_linear=0
shrinkage=0.05


Tree=21
num_leaves=31
num_cat=0
split_feature=7 5 7 0 0 4 0 7 0 1 7 7 1 0 0 0 7 1 0 0 0 4 7 7 0 1 1 0 1 0
split_gain=573.853 89.5792 83.1798 52.5047 59.113 42.0195 18.9176 20.7115 16.6019 14.9861 13.1938 12.12 11.3811 11.3203 20.0769 16.2919 9.92383 8.96106 8.67479 12.502 8.0694 8.84453 8.05418 7.94587 8.11812 7.36556 6.97059 6.09465 5.91431 10.189
threshold=3.5000000000000004 1.5000000000000002 1.5000000000000002 4.5000000000000009 1.5000000000000002 1.5000000000000002 1.5000000000000002 10.500000000000002 3.5000000000000004 5.5000000000000009 5.5000000000000009 2.5000000000000004 5.5000000000000009 4.5000000000000009 1.5000000000000002 3.5000000000000004 1.0000000180025095e-35 1.0000000180025095e-35 4.5000000000000009 1.5000000000000002 4.5000000000000009 6.5000000000000009 13.000000000000002 20.500000000000004 1.5000000000000002 3.5000000000000004 3.5000000000000004 3.5000000000000004 1.5000000000000002 1.0000000180025095e-35
decision_type=2 2 2 2 2 2 2 2 2 2 2 2 2 2 2 2 2 2 2 2 2 2 2 2 2 2 2 2 2 2
left_child=2 5 16 4 11 13 7 28 -6 -5 -3 -4 -8 14 17 -16 -1 -2 19 -18 21 23 -23 24 -12 -17 -15 -26 -7 -30
right_child=1 10 3 9 8 6 12 -9 -10 -11 20 -13 -14 26 15 25 18 -19 -20 -21 -22 22 -24 -25 27 -27 -28 -29 29 -31
leaf_value=-0.024829265113611658 -0.0093352041701672012 0.014768432726616272 -0.0038514923531829458 0.0099795248365900837 -0.018470323036286564 0.0052778659558270612 0.0070021114821764881 0.063038151032417777 -0.0074911383311986601 -0.011666248528564356 0.028043752203809016 0.0059746514836063564 0.045459099154113822 0.021932786140878024 -0.01282996375159471 0.012150959131551264 -0.011764261666629902 0.014728895400743972 -0.0081568779876001266 -0.021016648737967745 0.033524157926348462 0.02543629859314871 0.044725022264320423 0.0091476096959916108 -0.0031272102861812758 -0.0057317467946507612 0.0032299705667469363 0.021493707427558295 0.016735105007750401 0.048153003171838391
leaf_weight=337.4497337937355 45.17860072851181 207.08274447917938 774.6294156908989 650.69770950078964 943.55315554141998 29.893250226974487 150.79460921883583 48.368327438831329 542.15775725245476 91.164511501789093 400.96066206693649 527.53031992912292 22.052014291286469 122.96295499801636 283.34982800483704 141.96777045726776 631.45791485905647 269.2238427400589 329.88677400350571 865.54732075333595 478.12105083465576 122.35016441345215 97.04649829864502 97.124883890151978 39.166798114776611 96.871224403381348 83.751389801502228 70.159573972225189 58.944716572761536 45.901560604572296
leaf_count=723 50 167 1175 771 1822 21 137 16 938 135 115 629 22 97 469 162 1230 267 584 1818 95 36 16 25 25 113 80 36 42 30
internal_value=-1.6786e-06 0.0180558 -0.00923411 -0.00450195 -0.00764769 0.00893858 0.0237725 0.0349716 -0.0144639 0.00731956 0.0264931 0.00012927 0.0119085 0.00387757 0.00128863 -0.0047216 -0.0169516 0.011271 -0.0154965 -0.0171139 0.0283537 0.0253637 0.0339683 0.0222558 0.0247507 0.00489787 0.0143552 0.0126731 0.0248963 0.0304898
internal_weight=8605.35 2911.27 5694.07 3529.73 2787.87 1399.26 355.954 183.108 1485.71 741.862 1512.01 1302.16 172.847 1043.31 836.591 522.189 2164.34 314.402 1826.89 1497.01 1304.93 826.809 219.397 607.412 510.287 238.839 206.714 109.326 134.74 104.846
internal_count=11846 2021 9825 5470 4564 1506 268 109 2760 906 515 1804 159 1238 1061 744 4355 317 3632 3048 348 253 52 201 176 275 177 61 93 72
is_linear=0
shrinkage=0.05


Tree=22
num_leaves=31
num_cat=4
split_feature=6 6 8 6 5 5 5 6 6 1 3 5 6 8 6 1 1 5 1 1 3 5 7 6 7 8 6 6 6 8
split_gain=614.372 89.2995 78.0302 14.5492 14.2867 9.89185 9.56997 8.43039 8.28349 7.85066 9.29079 7.9476 6.1181 6.0094 5.29372 4.0906 4.23795 3.98559 3.90025 13.2413 4.39783 4.01244 3.8673 4.53851 3.55579 3.34178 3.33609 3.16604 2.79145 3.84729
threshold=0.44590643274853808 0.16441441441441443 0 0.059714795008912663 1.0000000180025095e-35 2.5000000000000004 1.0000000180025095e-35 3.3928571428571432 0.23669467787114848 4.5000000000000009 6.5000000000000009 1.0000000180025095e-35 0.75000000000000011 1 3.0833333333333339 2.5000000000000004 1.0000000180025095e-35 1.0000000180025095e-35 3.5000000000000004 2.5000000000000004 11.500000000000002 1.5000000000000002 11.500000000000002 2.2005012531328325 2.5000000000000004 2 0.31101190476190482 0.27951388888888895 0.91666666666666685 3
decision_type=2 2 1 2 2 2 2 2 2 2 2 2 2 1 2 2 2 2 2 2 2 2 2 2 2 1 2 2 2 1
left_child=1 3 5 -1 8 7 28 9 -3 11 -11 22 -8 24 -13 16 26 -5 19 20 21 -14 23 -2 -6 27 -15 -10 29 -4
right_child=2 4 6 17 13 -7 12 -9 25 10 -12 14 18 15 -16 -17 -18 -19 -20 -21 -22 -23 -24 -25 -26 -27 -28 -29 -30 -31
leaf_value=-0.022120733120712641 0.03231991736244174 -0.0097944243420507726 -0.00056406810137645794 -0.015139716849674785 -0.0086513752107271972 0.02770646371076534 0.010221997493481893 -0.0012614213072197125 -0.001272125260081966 0.020499103828746174 0.049158444801827517 0.019416544513907005 0.014452491584118973 -0.013527724163393727 0.03631878349375086 0.0012048299816334682 0.015532122992330212 -0.006633710552130136 0.012919717008271487 0.058589128629253154 0.0041159791627353422 0.040976592741453662 -0.0050737274074024487 0.0064871406036797535 0.0034136793301315378 -0.0042826178163507915 0.013113493256388876 0.021350239038547224 0.016506453967518334 0.0069902538075958948
leaf_weight=978.38965344429016 23.622385084629059 994.35705062747002 249.56074565649033 1310.6906177401543 163.80380979180336 1088.7828370332718 489.28337270021439 44.552229762077332 38.204978197813034 65.080656051635742 50.008305907249451 242.96086180210114 31.821387350559235 26.545052886009216 57.238130927085876 230.46700623631477 139.98527497053146 153.88373935222626 98.015887558460236 25.174303889274597 36.275388896465302 25.833566308021545 40.494974792003632 60.671074211597443 97.369450092315674 1206.6604215204716 21.084392368793488 25.985553860664368 53.222734212875366 536.7805055975914
leaf_count=2137 21 1719 306 2576 240 234 462 32 65 39 32 110 27 39 25 312 177 271 73 18 29 19 39 50 125 1885 26 38 53 667
internal_value=-5.88806e-06 -0.0103325 0.0172751 -0.0173998 -0.00446902 0.0247417 0.00897496 0.0196434 -0.00637621 0.0213679 0.0329521 0.0182308 0.0133217 0.00189119 0.0226392 0.00553478 0.0111487 -0.014246 0.020307 0.0263862 0.0177555 0.0263372 0.00762567 0.0137265 -0.00400017 -0.00370169 -0.00173431 0.00682292 0.00542453 0.00467446
internal_weight=8606.81 5387.43 3219.38 2442.96 2944.46 1673.41 1545.97 584.629 2265.21 540.076 115.089 424.987 706.404 679.255 300.199 418.082 187.615 1464.57 217.121 119.105 93.9303 57.655 124.788 84.2935 261.173 1270.85 47.6294 64.1905 839.564 786.341
internal_count=11846 9610 2236 4984 4626 582 1654 348 3707 316 71 245 628 919 135 554 242 2847 166 93 75 46 110 71 365 1988 65 103 1026 973
cat_boundaries=0 1 2 3 4
cat_threshold=2176 2171014 1027 74754
is_linear=0
shrinkage=0.05


Tree=23
num_leaves=31
num_cat=4
split_feature=8 5 7 0 0 7 1 0 0 0 7 1 7 0 7 7 0 0 8 1 8 7 7 7 0 3 3 1 0 8
split_gain=527.45 102.053 57.2209 41.3151 53.6946 27.9183 32.7208 27.8424 30.0276 19.2866 14.7209 14.4482 12.3136 11.6286 9.32643 8.47402 8.35558 11.4261 9.42959 8.23273 10.9557 8.10796 7.91558 7.49974 8.72515 7.55739 7.21662 6.26512 7.40413 7.21003
threshold=0 1.5000000000000002 1.5000000000000002 4.5000000000000009 1.5000000000000002 4.5000000000000009 3.5000000000000004 1.5000000000000002 3.5000000000000004 2.5000000000000004 4.5000000000000009 2.5000000000000004 5.5000000000000009 3.5000000000000004 1.0000000180025095e-35 4.5000000000000009 4.5000000000000009 1.5000000000000002 1 3.5000000000000004 2 3.5000000000000004 2.5000000000000004 10.500000000000002 4.5000000000000009 6.5000000000000009 1.5000000000000002 1.0000000180025095e-35 1.0000000180025095e-35 3
decision_type=1 2 2 2 2 2 2 2 2 2 2 2 2 2 2 2 2 2 1 2 1 2 2 2 2 2 2 2 2 1
left_child=1 7 14 4 5 22 -7 15 9 12 -3 -5 -9 -6 -2 -1 17 -16 -18 20 21 -15 -4 24 -10 -26 -17 -24 -29 -30
right_child=2 10 3 11 13 6 -8 8 23 -11 -12 -13 -14 19 16 26 18 -19 -20 -21 -22 -23 27 -25 25 -27 -28 28 29 -31
leaf_value=0.011332140076463484 -0.02482926520557855 0.012265058278231704 -0.006242639171070135 0.013446222546211537 -0.01977653344239947 -0.0022573443290099071 0.070534125086744545 -0.0044335032467379435 0.0019732299372070125 -0.016238968574965207 0.025543921857548987 -0.0016938056560684028 0.017570199736307534 0.0020514057410066875 -0.011852004875512669 0.012847066296674179 0.0093149631888299108 -0.020927148801706957 -0.011974906639978466 -0.017687210523140484 -0.012629218360633408 0.037607210831410075 -0.013252236037176164 0.030217666242302595 0.0067237816846270771 0.022472805887875424 0.032553296570544767 -0.0022507468559415998 0.00016457418291907129 0.021652200119977261
leaf_weight=495.00288552045822 312.84893590211868 243.97263967990875 661.76616042852402 292.61547338962555 801.54661205410957 33.227122902870178 28.837062120437622 205.92513298988342 296.61417746543884 261.92343720793724 1444.2207111120224 341.46717500686646 91.982292234897614 96.723776787519455 601.05138292908669 83.606866240501404 58.775683850049973 820.06781768798828 258.25862720608711 189.02123165130615 145.59715870022774 19.219534337520599 51.826769769191742 40.874213576316833 164.80183392763138 141.64284646511078 104.56138294935226 157.22909420728683 75.952886879444122 86.776050627231598
leaf_count=493 705 217 1056 351 1621 34 23 330 366 434 391 453 66 175 1211 52 88 1792 489 350 276 28 71 27 150 116 54 210 100 117
internal_value=-9.14848e-06 0.0146528 -0.0104329 -0.00603193 -0.00909061 -0.00100703 0.031564 0.00670335 0.00212785 -0.00634154 0.0236249 0.00529299 0.00236039 -0.0161639 -0.0168819 0.0147655 -0.0154515 -0.0170889 -0.00811183 -0.00973699 -0.00399119 0.0073145 -0.0029629 0.00949107 0.00808626 0.0140032 0.0237974 0.00287493 0.00548721 0.0129636
internal_weight=8607.94 3575.13 5032.81 2981.81 2347.72 1095.62 62.0642 1886.94 1203.76 559.831 1688.19 634.083 297.907 1252.11 2051 683.171 1738.15 1421.12 317.034 450.562 261.54 115.943 1033.55 643.933 603.059 306.445 188.168 371.785 319.958 162.729
internal_count=11846 2696 9150 4865 4061 1611 57 2088 1489 830 608 804 396 2450 4285 599 3580 3003 577 829 479 203 1554 659 632 266 106 498 427 217
cat_boundaries=0 1 2 3 4
cat_threshold=527372 360576 155809 82432
is_linear=0
shrinkage=0.05


Tree=24
num_leaves=31
num_cat=4
split_feature=6 6 8 0 0 0 0 6 0 1 0 4 0 0 0 1 8 1 0 0 1 7 0 0 8 4 1 8 1 1
split_gain=549.676 86.7601 63.9644 37.7921 50.2547 14.9953 42.3676 14.6703 12.6426 11.7534 11.1308 10.662 13.0023 21.8526 10.4417 10.196 8.58843 8.0323 7.60154 7.33218 7.25258 8.27821 7.18668 8.74396 6.55511 5.94131 5.66016 6.88717 4.99103 4.88473
threshold=0.44590643274853808 0.16441441441441443 0 4.5000000000000009 1.5000000000000002 1.5000000000000002 3.5000000000000004 0.059714795008912663 4.5000000000000009 2.5000000000000004 3.5000000000000004 8.5000000000000018 4.5000000000000009 1.5000000000000002 1.5000000000000002 1.0000000180025095e-35 1 1.0000000180025095e-35 2.5000000000000004 4.5000000000000009 1.5000000000000002 20.500000000000004 3.5000000000000004 2.5000000000000004 2 1.0000000180025095e-35 3.5000000000000004 3 4.5000000000000009 5.5000000000000009
decision_type=2 2 1 2 2 2 2 2 2 2 2 2 2 2 2 2 1 2 2 2 2 2 2 2 1 2 2 1 2 2
left_child=1 7 11 4 16 17 18 -1 14 -5 -6 12 13 15 -9 -2 -3 -4 -7 -8 -17 -22 23 -15 28 -24 27 -12 -10 -11
right_child=2 3 5 9 10 6 19 8 24 29 26 -13 -14 22 -16 20 -18 -19 -20 -21 21 -23 25 -25 -26 -27 -28 -29 -30 -31
leaf_value=-0.022008200911403718 0.0089408610648394581 -0.0052803181582186517 0.00027783415572656242 0.014023649707776187 -0.017966399498069711 -0.0034173653335367662 0.0050187418380920751 -0.010835690640769781 0.017739289068085678 0.0033960485204088094 0.0045205056888054226 0.038796415456256193 0.028202988578136298 0.011134849297624639 -0.020445092271050676 0.037957057053861563 0.0038624202805206554 0.016380284344563067 -0.018898736509487479 0.01651986605306897 0.026384673930062455 0.0093543910891276272 0.01201669283785058 -0.0092002512605796304 -0.0085503458339146778 0.034561975346973133 -0.014649419880119023 -0.011290267660296484 -0.013323274110532574 -0.011406665082821675
leaf_weight=939.36172121763229 100.68070161342621 394.02650165557861 89.616086900234222 289.55356413125992 757.70095860958099 177.47140604257584 221.12029045820236 500.22958567738533 50.506765604019165 262.17600506544113 136.45063778758049 95.87323784828186 519.49517571926117 136.24692338705063 650.06558179855347 106.71114063262939 695.71987420320511 570.25617247819901 143.32617861032486 371.22908085584641 449.09648448228836 84.835863828659058 138.41409742832184 86.377810060977936 207.96856284141541 37.042499542236328 186.64330604672432 122.82317754626274 17.382248878479004 70.776152908802032
leaf_count=2137 28 591 82 331 1530 273 276 963 74 317 231 21 94 83 1422 26 948 476 268 279 112 17 82 100 359 19 339 227 29 112
internal_value=-1.27258e-05 -0.0100415 0.0159034 -0.00426936 -0.00723503 0.0083973 0.00430077 -0.0171565 -0.0139609 0.00665639 -0.0142777 0.0224563 0.0216473 0.0186583 -0.0162662 0.0237325 0.000543611 0.0141934 -0.0103341 0.0122266 0.0260571 0.0236788 0.00920901 0.00324488 -0.00434768 0.0167765 -0.00801 -0.00323048 0.00852965 0.000249413
internal_weight=8609.18 5281.38 3327.79 2915.87 2293.36 1573.02 913.147 2365.51 1426.15 622.506 1203.62 1754.77 1658.9 1139.41 1150.3 741.324 1089.75 659.872 320.798 592.349 640.643 533.932 398.081 222.625 275.858 175.457 445.917 259.274 67.889 332.952
internal_count=11846 9610 2236 4626 3866 1654 1096 4984 2847 760 2327 582 561 467 2385 183 1539 558 541 555 155 129 284 183 462 101 797 458 103 429
cat_boundaries=0 1 2 3 4
cat_threshold=2176 3199107 98370 680168
is_linear=0
shrinkage=0.05


Tree=25
num_leaves=31
num_cat=5
split_feature=6 6 7 0 0 0 0 8 2 0 0 0 8 6 8 0 0 6 6 0 7 0 0 6 6 8 7 3 6 8
split_gain=496.076 86.9823 45.7811 40.2777 78.1059 16.7759 41.1886 12.5625 11.8016 11.723 10.4105 22.5621 9.74531 9.00461 8.75966 8.30899 9.45587 8.10692 6.94118 7.38784 6.57066 6.07507 6.29513 5.61691 5.05136 4.82932 4.63201 4.52474 4.27568 4.56628
threshold=0.44590643274853808 0.10435571687840291 7.5000000000000009 4.5000000000000009 1.5000000000000002 4.5000000000000009 1.5000000000000002 0 1.0000000180025095e-35 3.5000000000000004 4.5000000000000009 1.5000000000000002 1 2.2005012531328325 2 3.5000000000000004 2.5000000000000004 2.6071428571428577 0.026190476190476191 4.5000000000000009 10.500000000000002 3.5000000000000004 2.5000000000000004 0.54304029304029322 0.86607142857142871 3 4.5000000000000009 6.5000000000000009 0.32916666666666672 4
decision_type=2 2 2 2 2 2 2 1 2 2 2 2 1 2 1 2 2 2 2 2 2 2 2 2 2 1 2 2 2 1
left_child=1 18 5 4 7 6 23 25 12 -6 11 17 -5 -13 -11 16 -8 20 -1 -20 -4 22 -15 -2 26 -3 -7 -12 -9 -30
right_child=2 3 10 8 9 24 15 28 -10 14 27 13 -14 21 -16 -17 -18 -19 19 -21 -22 -23 -24 -25 -26 -27 -28 -29 29 -31
leaf_value=-0.023795816963882666 0.0076207981381284304 -0.011192019178761586 0.02522473643446051 -0.00078937445356298862 -0.019468155540658047 0.017603158920504423 -0.00063463943725948295 0.0027757839176515914 -0.0059024771219866115 -0.0004828950690008163 0.023380958098621899 -0.016128047849504765 0.012766061513009639 0.011558666650190168 -0.014435600919968053 0.0041607506544824755 -0.016988319782810502 0.021039342469445121 -0.018981697362159048 -0.0080883147503258614 0.047457215847429478 0.018867755158994658 -0.0080249395641449166 0.01721806752577601 0.026270028486759633 -0.0016542647499269616 0.002518694536715901 0.033354017088226905 0.0035673134948671914 0.01926812040900357
leaf_weight=580.58035904169083 212.63440889120102 169.52984303236008 78.914768934249878 208.31599485874176 951.29560574889183 248.63062274456024 198.39116525650024 422.02424478530884 200.77363294363022 172.70865970849991 277.94934558868408 34.477935522794724 376.97077357769012 119.54512894153595 365.06432792544365 236.288245677948 159.4195504784584 581.00739002227783 837.95517444610596 191.14804646372795 57.410457909107208 133.87640523910522 62.483912169933319 538.67864042520523 129.16029798984528 555.19061255455017 63.990148961544037 192.49515604972839 116.71571010351181 90.874294102191925
leaf_count=1358 212 287 22 266 1987 195 278 645 292 301 48 41 442 67 703 278 290 120 1864 371 26 72 70 355 45 850 44 35 131 106
internal_value=-0.000163496 -0.00975048 0.0149409 -0.00546001 -0.00822944 0.00949831 0.00672241 0.000459904 0.00455779 -0.0161326 0.0212648 0.0185343 0.00814602 0.00813463 -0.010232 -0.00311571 -0.00792088 0.0236141 -0.0194245 -0.0169583 0.0345875 0.0107827 0.00483633 0.0145019 0.0179521 -0.00400734 0.0145155 0.0274617 0.00557702 0.0115405
internal_weight=8564.5 5239.15 3325.35 3629.46 2843.4 1787.19 1345.41 1354.33 786.06 1489.07 1538.16 1067.72 585.287 350.383 537.773 594.099 357.811 717.333 1609.68 1029.1 136.325 315.905 182.029 751.313 441.781 724.72 312.621 470.445 629.614 207.59
internal_count=11801 9603 2198 6010 5010 1697 1413 2019 1000 2991 501 418 708 250 1004 846 568 168 3593 2235 48 209 137 567 284 1137 239 83 882 237
cat_boundaries=0 1 2 3 4 5
cat_threshold=3526787 2236525 82057 32770 524296
is_linear=0
shrinkage=0.05


Tree=26
num_leaves=31
num_cat=3
split_feature=6 6 7 5 6 4 5 4 6 6 5 6 8 4 4 6 1 7 8 1 7 5 5 6 8 1 6 6 6 1
split_gain=469.3 85.6666 41.5472 19.0606 13.6925 10.8746 10.2604 8.64492 7.67717 7.01437 6.73809 10.3012 5.41902 5.27111 4.96637 4.77731 4.95992 4.4932 4.19022 3.55745 3.97575 3.83177 3.49958 3.43375 3.38293 4.74948 4.01606 3.2691 3.09356 3.90524
threshold=0.44590643274853808 0.10435571687840291 7.5000000000000009 1.0000000180025095e-35 0.23669467787114848 11.500000000000002 1.0000000180025095e-35 1.5000000000000002 0.75000000000000011 0.026190476190476191 2.5000000000000004 1.1071428571428574 0 1.0000000180025095e-35 1.5000000000000002 0.72619047619047639 2.5000000000000004 3.5000000000000004 1 2.5000000000000004 4.5000000000000009 2.5000000000000004 1.5000000000000002 0.9642857142857143 2 3.5000000000000004 0.27951388888888895 0.35912698412698418 0.84523809523809534 3.5000000000000004
decision_type=2 2 2 2 2 2 2 2 2 2 2 2 1 2 2 2 2 2 1 2 2 2 2 2 1 2 2 2 2 2
left_child=1 9 6 4 -3 10 7 -2 19 -1 11 -4 -5 18 22 17 -17 -9 -6 20 21 -8 -13 -18 25 26 -15 -28 29 -10
right_child=2 3 5 12 13 -7 8 15 28 -11 -12 14 -14 24 -16 16 23 -19 -20 -21 -22 -23 -24 -25 -26 -27 27 -29 -30 -31
leaf_value=-0.023770930443321934 0.0027695369380100962 -0.010412858210720738 0.040471373801862859 -0.0024539756834328751 -0.0095558125471007123 0.041200561022430283 0.011043040626878673 0.01107762621920321 0.034441935556794721 -0.016823790586606966 0.021805944533608172 0.0012109408082040928 0.0057590512090696768 -0.014147198455532995 0.016740398341470047 -0.010633704783765817 0.0035636823983843896 0.033090583962597481 -0.0025875554974433392 0.012211959141319543 -0.010242031000769805 -0.0076118077384283861 0.016385547148714999 0.026862833703128971 0.0075679739315311252 -0.013643983403184776 0.020299320619353207 -0.00050438264388635173 0.015592887568564615 0.013361560161913567
leaf_weight=566.92805051803589 697.4940402507782 1557.2534758150578 35.987396121025085 410.0299913585186 346.7165050804615 59.821451425552368 131.02029269933701 43.167201042175293 54.832700371742249 1011.8075977563858 1013.182962179184 119.04667741060257 377.34700211882591 23.403710901737213 287.46924996376038 28.177824318408966 33.459012746810913 50.069191575050354 612.62716647982597 296.9664249420166 41.131855547428131 34.848350405693054 55.805179357528687 29.98524022102356 144.28143802285194 62.582241028547287 36.562191963195801 39.0546595454216 326.55361241102219 36.658018827438354
leaf_count=1358 862 2896 34 578 579 11 120 48 41 2235 196 106 508 39 126 24 25 49 993 273 36 27 28 17 220 93 53 51 147 28
internal_value=-0.000162833 -0.00960356 0.0143481 -0.00535482 -0.00727379 0.0202922 0.00917164 0.00531742 0.0128601 -0.0193185 0.0194647 0.0147045 0.00152406 -0.0034102 0.0126988 0.0149309 0.00682249 0.0228989 -0.00523253 0.00870468 0.00367308 0.00712373 0.00605402 0.0145754 0.00230518 -0.00269505 0.00395264 0.00955461 0.0178696 0.0259956
internal_weight=8564.27 5188.59 3375.68 3609.86 2822.48 1571.31 1804.36 882.353 922.011 1578.74 1511.49 498.309 787.377 1265.23 462.321 184.858 91.6221 93.2364 959.344 503.967 207 165.869 174.852 63.4443 305.884 161.603 99.0206 75.6169 418.044 91.4907
internal_count=11801 9603 2198 6010 4924 501 1697 1025 672 3593 490 294 1086 2028 260 163 66 97 1572 456 183 147 134 42 456 236 143 104 216 69
cat_boundaries=0 1 2 3
cat_threshold=336551 844032 770058
is_linear=0
shrinkage=0.05


Tree=27
num_leaves=31
num_cat=3
split_feature=6 6 7 5 6 4 5 4 6 6 5 6 8 4 4 6 8 7 3 8 7 6 7 7 6 6 6 3 3 6
split_gain=444.19 84.3435 37.7823 18.3369 13.2982 9.5149 9.48866 8.02412 7.08657 7.01264 6.05462 9.13611 5.13543 5.05475 4.55568 4.3413 4.0613 3.98937 3.90542 3.09293 4.33617 6.94665 4.25637 3.03678 4.72061 2.76649 2.66621 2.59438 2.57618 2.47236
threshold=0.44590643274853808 0.10435571687840291 7.5000000000000009 1.0000000180025095e-35 0.23669467787114848 11.500000000000002 1.0000000180025095e-35 1.5000000000000002 0.026190476190476191 0.75000000000000011 2.5000000000000004 1.1071428571428574 0 1.0000000180025095e-35 1.5000000000000002 0.72619047619047639 1 3.5000000000000004 11.500000000000002 2 3.5000000000000004 0.35504201680672276 2.5000000000000004 5.5000000000000009 0.91666666666666685 0.84523809523809534 0.27951388888888895 1.5000000000000002 11.500000000000002 0.98809523809523825
decision_type=2 2 2 2 2 2 2 2 2 2 2 2 1 2 2 2 1 2 2 1 2 2 2 2 2 2 2 2 2 2
left_child=1 8 6 4 -3 10 7 23 -1 -8 11 -4 26 16 18 17 -6 -9 -13 22 -21 -22 27 24 -2 28 -5 -15 -11 -17
right_child=2 3 5 12 13 -7 9 15 -10 25 -12 14 -14 19 -16 29 -18 -19 -20 20 21 -23 -24 -25 -26 -27 -28 -29 -30 -31
leaf_value=-0.023745470609291639 0.0030650713401746128 -0.010261957785890494 0.037881333924625102 -0.005741406082647376 -0.0094133122360252845 0.038535376060617861 0.0084131135283933307 0.010682058254084224 -0.016687968769998132 0.033200387011009608 0.020800027115873431 0.011660548262233693 0.0055879071646632401 0.040306909747997846 0.0160502980037459 5.5991942335456872e-05 -0.0025308572624339874 0.031205345977045953 -0.0037126166931803609 -0.0048084459354178601 0.035700985350621377 -0.0029957546014969978 0.00042146326242351051 -0.0063885994677055002 0.027079248354431297 0.014967478016968187 0.0025056919269510511 0.013509944293768403 0.016631007312411017 0.016835461942654676
leaf_weight=553.61056897044182 596.89535975456238 1541.1221490800381 37.473729193210602 246.22981441020966 343.41912618279457 62.337605357170105 508.38720333576202 43.648049712181091 994.92754954099655 45.66630882024765 1035.5190181732178 109.61963397264481 379.52643263339996 13.817206889390944 292.32210528850555 56.258208811283112 611.04400759935379 51.753727793693542 66.298399865627289 172.32062020897865 18.998765140771866 29.770750313997269 45.543240308761597 81.341965585947037 21.191129207611084 331.68543326854706 162.7952071428299 26.082958370447159 48.23895001411438 36.001675963401794
leaf_count=1358 752 2896 34 370 579 11 456 48 2235 34 196 76 508 21 126 45 993 49 58 266 26 38 65 88 22 147 208 40 35 21
internal_value=-0.000161613 -0.00945725 0.0137879 -0.00525075 -0.00714622 0.0193846 0.00885976 0.00515641 -0.0192111 0.0123772 0.01861 0.0141256 0.00148481 -0.00333833 0.0122244 0.014337 -0.00513233 0.0218156 0.00586685 0.00224771 -0.00103642 0.012079 0.00972831 0.00269321 0.0038884 0.0171124 -0.00240031 0.0227896 0.0246887 0.00660368
internal_weight=8563.85 5139.21 3424.64 3590.67 2802.12 1603.57 1821.07 887.09 1548.54 933.978 1541.23 505.714 788.551 1261 468.24 187.662 954.463 95.4018 175.918 306.534 221.09 48.7695 85.4434 699.428 618.086 425.591 409.025 39.9002 93.9053 92.2599
internal_count=11801 9603 2198 6010 4924 501 1697 1025 3593 672 490 294 1086 2028 260 163 1572 97 134 456 330 64 126 862 774 216 578 61 69 66
cat_boundaries=0 1 2 3
cat_threshold=336551 844032 9732
is_linear=0
shrinkage=0.05


Tree=28
num_leaves=31
num_cat=4
split_feature=6 6 0 0 7 0 0 0 8 1 8 8 0 0 6 0 0 6 0 6 4 0 0 6 1 8 0 6 6 7
split_gain=420.618 83.0073 38.5578 76.4244 34.4199 14.9035 36.9455 11.8051 11.7104 11.1985 9.15594 8.55575 8.51784 18.1121 8.42848 7.8573 8.93071 7.15758 7.5959 6.84731 12.8608 5.65751 5.48257 4.79119 6.17792 4.64877 4.02666 3.9909 3.98702 4.04799
threshold=0.44590643274853808 0.10435571687840291 4.5000000000000009 1.5000000000000002 7.5000000000000009 4.5000000000000009 1.5000000000000002 3.5000000000000004 0 4.5000000000000009 1 2 4.5000000000000009 1.5000000000000002 2.2005012531328325 3.5000000000000004 2.5000000000000004 0.026190476190476191 4.5000000000000009 2.6071428571428577 2.5000000000000004 3.5000000000000004 2.5000000000000004 0.54304029304029322 5.5000000000000009 3 1.5000000000000002 0.38013136288998362 0.86607142857142871 4.5000000000000009
decision_type=2 2 2 2 2 2 2 2 1 2 1 1 2 2 2 2 2 2 2 2 2 2 2 2 2 1 2 2 2 2
left_child=1 17 3 8 5 6 23 -5 25 10 -4 27 13 19 -15 16 -8 -1 26 20 -6 22 -16 24 -2 -3 -19 -9 29 -7
right_child=4 2 9 7 12 28 15 11 -10 -11 -12 -13 -14 14 21 -17 -18 18 -20 -21 -22 -23 -24 -25 -26 -27 -28 -29 -30 -31
leaf_value=-0.023719427531201216 0.0029895567573831969 -0.0108246378198087 -0.00060611613446856537 -0.019289490994744047 0.013572993283654406 0.016146096173151329 -0.0010576911497585564 -0.0039588625707177279 0.0056145909065657973 -0.0056306414120752893 0.012572290521088381 -0.014138443454479541 0.023937401185985693 -0.016311504790572973 0.0098296109171457299 0.0036444642264385329 -0.016924621187653782 -0.014478188344818829 -0.0073772012094464687 0.018178561314371604 0.043325061376129896 0.017054894275688664 -0.008224710094976417 0.015602273769730663 0.025180909256927543 -0.0013735792292665612 -0.021689404312906384 0.015585397223252074 0.023530555899287677 0.0021668467228488676
leaf_weight=540.61967086791992 179.73442685604095 164.82026660442352 206.66434174776077 920.61514762043953 65.100338041782379 257.47179931402206 201.92184060811996 138.95275723934174 628.8248798251152 197.93085205554962 378.97560113668442 354.63920351862907 504.44292867183685 35.220526814460754 125.50897467136383 240.57263118028641 158.13489031791687 333.29865810275078 183.35940459370613 619.65465974807739 82.166464328765869 139.6709418296814 63.23565948009491 560.20622909069061 37.992268979549408 548.42718288302422 461.80394133925438 32.166543424129486 136.47693002223969 64.82414972782135
leaf_count=1358 178 287 266 1987 27 195 278 255 882 292 442 703 83 41 67 278 290 747 371 120 21 72 70 355 34 850 1117 46 45 44
internal_value=-0.000160423 -0.00931199 -0.00514851 -0.00790227 0.0132575 0.00856149 0.00596369 -0.0158758 0.000690969 0.00465116 0.00812614 -0.00989846 0.0185346 0.016124 0.00693326 -0.00335179 -0.00802636 -0.0191021 -0.016551 0.0204818 0.0301729 0.00942611 0.00378082 0.013156 0.00686184 -0.00367704 -0.0186665 -0.000269251 0.0163676 0.0133344
